~o
<STREAMINFO> 1 39
<VECSIZE> 39<NULLD><MFCC_E_D_A_Z><DIAGC>
~h "hmmdef"
<BEGINHMM>
<NUMSTATES> 15
<STATE> 2
<MEAN> 39
 -4.850520e-09 1.028881e-08 -2.457447e-09 8.340767e-09 -1.178903e-08 -1.611055e-08 2.528820e-08 -2.770926e-10 1.410933e-08 1.483425e-09 -2.894078e-09 -6.851744e-09 7.100832e-01 1.332750e-02 -2.589555e-02 -1.775305e-03 1.820767e-02 1.440495e-02 -1.096845e-02 -1.403562e-02 -2.681354e-02 -6.095405e-03 2.780387e-03 -1.148290e-03 -4.305908e-03 1.331586e-03 -9.053765e-03 -3.783359e-03 4.780923e-03 2.122159e-03 6.131073e-03 8.621823e-03 7.099930e-03 9.842527e-03 9.067087e-03 1.861116e-03 4.151754e-04 1.593654e-04 -1.564158e-03
<VARIANCE> 39
 4.872061e+01 8.793840e+01 4.467797e+01 5.986339e+01 4.655360e+01 5.547997e+01 5.233102e+01 5.238749e+01 4.623668e+01 4.285940e+01 4.554256e+01 4.065517e+01 8.178985e-02 2.131719e+00 2.467501e+00 2.295795e+00 3.262999e+00 2.705516e+00 3.277762e+00 3.157425e+00 3.330883e+00 3.002589e+00 2.830696e+00 2.829966e+00 2.573833e+00 3.754082e-03 3.006852e-01 3.204699e-01 3.548016e-01 5.152391e-01 4.554176e-01 5.507925e-01 5.410463e-01 5.677049e-01 5.208369e-01 4.984413e-01 4.887285e-01 4.422382e-01 3.730629e-04
<GCONST> 1.056898e+02
<STATE> 3
<MEAN> 39
 -4.850520e-09 1.028881e-08 -2.457447e-09 8.340767e-09 -1.178903e-08 -1.611055e-08 2.528820e-08 -2.770926e-10 1.410933e-08 1.483425e-09 -2.894078e-09 -6.851744e-09 7.100832e-01 1.332750e-02 -2.589555e-02 -1.775305e-03 1.820767e-02 1.440495e-02 -1.096845e-02 -1.403562e-02 -2.681354e-02 -6.095405e-03 2.780387e-03 -1.148290e-03 -4.305908e-03 1.331586e-03 -9.053765e-03 -3.783359e-03 4.780923e-03 2.122159e-03 6.131073e-03 8.621823e-03 7.099930e-03 9.842527e-03 9.067087e-03 1.861116e-03 4.151754e-04 1.593654e-04 -1.564158e-03
<VARIANCE> 39
 4.872061e+01 8.793840e+01 4.467797e+01 5.986339e+01 4.655360e+01 5.547997e+01 5.233102e+01 5.238749e+01 4.623668e+01 4.285940e+01 4.554256e+01 4.065517e+01 8.178985e-02 2.131719e+00 2.467501e+00 2.295795e+00 3.262999e+00 2.705516e+00 3.277762e+00 3.157425e+00 3.330883e+00 3.002589e+00 2.830696e+00 2.829966e+00 2.573833e+00 3.754082e-03 3.006852e-01 3.204699e-01 3.548016e-01 5.152391e-01 4.554176e-01 5.507925e-01 5.410463e-01 5.677049e-01 5.208369e-01 4.984413e-01 4.887285e-01 4.422382e-01 3.730629e-04
<GCONST> 1.056898e+02
<STATE> 4
<MEAN> 39
 -4.850520e-09 1.028881e-08 -2.457447e-09 8.340767e-09 -1.178903e-08 -1.611055e-08 2.528820e-08 -2.770926e-10 1.410933e-08 1.483425e-09 -2.894078e-09 -6.851744e-09 7.100832e-01 1.332750e-02 -2.589555e-02 -1.775305e-03 1.820767e-02 1.440495e-02 -1.096845e-02 -1.403562e-02 -2.681354e-02 -6.095405e-03 2.780387e-03 -1.148290e-03 -4.305908e-03 1.331586e-03 -9.053765e-03 -3.783359e-03 4.780923e-03 2.122159e-03 6.131073e-03 8.621823e-03 7.099930e-03 9.842527e-03 9.067087e-03 1.861116e-03 4.151754e-04 1.593654e-04 -1.564158e-03
<VARIANCE> 39
 4.872061e+01 8.793840e+01 4.467797e+01 5.986339e+01 4.655360e+01 5.547997e+01 5.233102e+01 5.238749e+01 4.623668e+01 4.285940e+01 4.554256e+01 4.065517e+01 8.178985e-02 2.131719e+00 2.467501e+00 2.295795e+00 3.262999e+00 2.705516e+00 3.277762e+00 3.157425e+00 3.330883e+00 3.002589e+00 2.830696e+00 2.829966e+00 2.573833e+00 3.754082e-03 3.006852e-01 3.204699e-01 3.548016e-01 5.152391e-01 4.554176e-01 5.507925e-01 5.410463e-01 5.677049e-01 5.208369e-01 4.984413e-01 4.887285e-01 4.422382e-01 3.730629e-04
<GCONST> 1.056898e+02
<STATE> 5
<MEAN> 39
 -4.850520e-09 1.028881e-08 -2.457447e-09 8.340767e-09 -1.178903e-08 -1.611055e-08 2.528820e-08 -2.770926e-10 1.410933e-08 1.483425e-09 -2.894078e-09 -6.851744e-09 7.100832e-01 1.332750e-02 -2.589555e-02 -1.775305e-03 1.820767e-02 1.440495e-02 -1.096845e-02 -1.403562e-02 -2.681354e-02 -6.095405e-03 2.780387e-03 -1.148290e-03 -4.305908e-03 1.331586e-03 -9.053765e-03 -3.783359e-03 4.780923e-03 2.122159e-03 6.131073e-03 8.621823e-03 7.099930e-03 9.842527e-03 9.067087e-03 1.861116e-03 4.151754e-04 1.593654e-04 -1.564158e-03
<VARIANCE> 39
 4.872061e+01 8.793840e+01 4.467797e+01 5.986339e+01 4.655360e+01 5.547997e+01 5.233102e+01 5.238749e+01 4.623668e+01 4.285940e+01 4.554256e+01 4.065517e+01 8.178985e-02 2.131719e+00 2.467501e+00 2.295795e+00 3.262999e+00 2.705516e+00 3.277762e+00 3.157425e+00 3.330883e+00 3.002589e+00 2.830696e+00 2.829966e+00 2.573833e+00 3.754082e-03 3.006852e-01 3.204699e-01 3.548016e-01 5.152391e-01 4.554176e-01 5.507925e-01 5.410463e-01 5.677049e-01 5.208369e-01 4.984413e-01 4.887285e-01 4.422382e-01 3.730629e-04
<GCONST> 1.056898e+02
<STATE> 6
<MEAN> 39
 -4.850520e-09 1.028881e-08 -2.457447e-09 8.340767e-09 -1.178903e-08 -1.611055e-08 2.528820e-08 -2.770926e-10 1.410933e-08 1.483425e-09 -2.894078e-09 -6.851744e-09 7.100832e-01 1.332750e-02 -2.589555e-02 -1.775305e-03 1.820767e-02 1.440495e-02 -1.096845e-02 -1.403562e-02 -2.681354e-02 -6.095405e-03 2.780387e-03 -1.148290e-03 -4.305908e-03 1.331586e-03 -9.053765e-03 -3.783359e-03 4.780923e-03 2.122159e-03 6.131073e-03 8.621823e-03 7.099930e-03 9.842527e-03 9.067087e-03 1.861116e-03 4.151754e-04 1.593654e-04 -1.564158e-03
<VARIANCE> 39
 4.872061e+01 8.793840e+01 4.467797e+01 5.986339e+01 4.655360e+01 5.547997e+01 5.233102e+01 5.238749e+01 4.623668e+01 4.285940e+01 4.554256e+01 4.065517e+01 8.178985e-02 2.131719e+00 2.467501e+00 2.295795e+00 3.262999e+00 2.705516e+00 3.277762e+00 3.157425e+00 3.330883e+00 3.002589e+00 2.830696e+00 2.829966e+00 2.573833e+00 3.754082e-03 3.006852e-01 3.204699e-01 3.548016e-01 5.152391e-01 4.554176e-01 5.507925e-01 5.410463e-01 5.677049e-01 5.208369e-01 4.984413e-01 4.887285e-01 4.422382e-01 3.730629e-04
<GCONST> 1.056898e+02
<STATE> 7
<MEAN> 39
 -4.850520e-09 1.028881e-08 -2.457447e-09 8.340767e-09 -1.178903e-08 -1.611055e-08 2.528820e-08 -2.770926e-10 1.410933e-08 1.483425e-09 -2.894078e-09 -6.851744e-09 7.100832e-01 1.332750e-02 -2.589555e-02 -1.775305e-03 1.820767e-02 1.440495e-02 -1.096845e-02 -1.403562e-02 -2.681354e-02 -6.095405e-03 2.780387e-03 -1.148290e-03 -4.305908e-03 1.331586e-03 -9.053765e-03 -3.783359e-03 4.780923e-03 2.122159e-03 6.131073e-03 8.621823e-03 7.099930e-03 9.842527e-03 9.067087e-03 1.861116e-03 4.151754e-04 1.593654e-04 -1.564158e-03
<VARIANCE> 39
 4.872061e+01 8.793840e+01 4.467797e+01 5.986339e+01 4.655360e+01 5.547997e+01 5.233102e+01 5.238749e+01 4.623668e+01 4.285940e+01 4.554256e+01 4.065517e+01 8.178985e-02 2.131719e+00 2.467501e+00 2.295795e+00 3.262999e+00 2.705516e+00 3.277762e+00 3.157425e+00 3.330883e+00 3.002589e+00 2.830696e+00 2.829966e+00 2.573833e+00 3.754082e-03 3.006852e-01 3.204699e-01 3.548016e-01 5.152391e-01 4.554176e-01 5.507925e-01 5.410463e-01 5.677049e-01 5.208369e-01 4.984413e-01 4.887285e-01 4.422382e-01 3.730629e-04
<GCONST> 1.056898e+02
<STATE> 8
<MEAN> 39
 -4.850520e-09 1.028881e-08 -2.457447e-09 8.340767e-09 -1.178903e-08 -1.611055e-08 2.528820e-08 -2.770926e-10 1.410933e-08 1.483425e-09 -2.894078e-09 -6.851744e-09 7.100832e-01 1.332750e-02 -2.589555e-02 -1.775305e-03 1.820767e-02 1.440495e-02 -1.096845e-02 -1.403562e-02 -2.681354e-02 -6.095405e-03 2.780387e-03 -1.148290e-03 -4.305908e-03 1.331586e-03 -9.053765e-03 -3.783359e-03 4.780923e-03 2.122159e-03 6.131073e-03 8.621823e-03 7.099930e-03 9.842527e-03 9.067087e-03 1.861116e-03 4.151754e-04 1.593654e-04 -1.564158e-03
<VARIANCE> 39
 4.872061e+01 8.793840e+01 4.467797e+01 5.986339e+01 4.655360e+01 5.547997e+01 5.233102e+01 5.238749e+01 4.623668e+01 4.285940e+01 4.554256e+01 4.065517e+01 8.178985e-02 2.131719e+00 2.467501e+00 2.295795e+00 3.262999e+00 2.705516e+00 3.277762e+00 3.157425e+00 3.330883e+00 3.002589e+00 2.830696e+00 2.829966e+00 2.573833e+00 3.754082e-03 3.006852e-01 3.204699e-01 3.548016e-01 5.152391e-01 4.554176e-01 5.507925e-01 5.410463e-01 5.677049e-01 5.208369e-01 4.984413e-01 4.887285e-01 4.422382e-01 3.730629e-04
<GCONST> 1.056898e+02
<STATE> 9
<MEAN> 39
 -4.850520e-09 1.028881e-08 -2.457447e-09 8.340767e-09 -1.178903e-08 -1.611055e-08 2.528820e-08 -2.770926e-10 1.410933e-08 1.483425e-09 -2.894078e-09 -6.851744e-09 7.100832e-01 1.332750e-02 -2.589555e-02 -1.775305e-03 1.820767e-02 1.440495e-02 -1.096845e-02 -1.403562e-02 -2.681354e-02 -6.095405e-03 2.780387e-03 -1.148290e-03 -4.305908e-03 1.331586e-03 -9.053765e-03 -3.783359e-03 4.780923e-03 2.122159e-03 6.131073e-03 8.621823e-03 7.099930e-03 9.842527e-03 9.067087e-03 1.861116e-03 4.151754e-04 1.593654e-04 -1.564158e-03
<VARIANCE> 39
 4.872061e+01 8.793840e+01 4.467797e+01 5.986339e+01 4.655360e+01 5.547997e+01 5.233102e+01 5.238749e+01 4.623668e+01 4.285940e+01 4.554256e+01 4.065517e+01 8.178985e-02 2.131719e+00 2.467501e+00 2.295795e+00 3.262999e+00 2.705516e+00 3.277762e+00 3.157425e+00 3.330883e+00 3.002589e+00 2.830696e+00 2.829966e+00 2.573833e+00 3.754082e-03 3.006852e-01 3.204699e-01 3.548016e-01 5.152391e-01 4.554176e-01 5.507925e-01 5.410463e-01 5.677049e-01 5.208369e-01 4.984413e-01 4.887285e-01 4.422382e-01 3.730629e-04
<GCONST> 1.056898e+02
<STATE> 10
<MEAN> 39
 -4.850520e-09 1.028881e-08 -2.457447e-09 8.340767e-09 -1.178903e-08 -1.611055e-08 2.528820e-08 -2.770926e-10 1.410933e-08 1.483425e-09 -2.894078e-09 -6.851744e-09 7.100832e-01 1.332750e-02 -2.589555e-02 -1.775305e-03 1.820767e-02 1.440495e-02 -1.096845e-02 -1.403562e-02 -2.681354e-02 -6.095405e-03 2.780387e-03 -1.148290e-03 -4.305908e-03 1.331586e-03 -9.053765e-03 -3.783359e-03 4.780923e-03 2.122159e-03 6.131073e-03 8.621823e-03 7.099930e-03 9.842527e-03 9.067087e-03 1.861116e-03 4.151754e-04 1.593654e-04 -1.564158e-03
<VARIANCE> 39
 4.872061e+01 8.793840e+01 4.467797e+01 5.986339e+01 4.655360e+01 5.547997e+01 5.233102e+01 5.238749e+01 4.623668e+01 4.285940e+01 4.554256e+01 4.065517e+01 8.178985e-02 2.131719e+00 2.467501e+00 2.295795e+00 3.262999e+00 2.705516e+00 3.277762e+00 3.157425e+00 3.330883e+00 3.002589e+00 2.830696e+00 2.829966e+00 2.573833e+00 3.754082e-03 3.006852e-01 3.204699e-01 3.548016e-01 5.152391e-01 4.554176e-01 5.507925e-01 5.410463e-01 5.677049e-01 5.208369e-01 4.984413e-01 4.887285e-01 4.422382e-01 3.730629e-04
<GCONST> 1.056898e+02
<STATE> 11
<MEAN> 39
 -4.850520e-09 1.028881e-08 -2.457447e-09 8.340767e-09 -1.178903e-08 -1.611055e-08 2.528820e-08 -2.770926e-10 1.410933e-08 1.483425e-09 -2.894078e-09 -6.851744e-09 7.100832e-01 1.332750e-02 -2.589555e-02 -1.775305e-03 1.820767e-02 1.440495e-02 -1.096845e-02 -1.403562e-02 -2.681354e-02 -6.095405e-03 2.780387e-03 -1.148290e-03 -4.305908e-03 1.331586e-03 -9.053765e-03 -3.783359e-03 4.780923e-03 2.122159e-03 6.131073e-03 8.621823e-03 7.099930e-03 9.842527e-03 9.067087e-03 1.861116e-03 4.151754e-04 1.593654e-04 -1.564158e-03
<VARIANCE> 39
 4.872061e+01 8.793840e+01 4.467797e+01 5.986339e+01 4.655360e+01 5.547997e+01 5.233102e+01 5.238749e+01 4.623668e+01 4.285940e+01 4.554256e+01 4.065517e+01 8.178985e-02 2.131719e+00 2.467501e+00 2.295795e+00 3.262999e+00 2.705516e+00 3.277762e+00 3.157425e+00 3.330883e+00 3.002589e+00 2.830696e+00 2.829966e+00 2.573833e+00 3.754082e-03 3.006852e-01 3.204699e-01 3.548016e-01 5.152391e-01 4.554176e-01 5.507925e-01 5.410463e-01 5.677049e-01 5.208369e-01 4.984413e-01 4.887285e-01 4.422382e-01 3.730629e-04
<GCONST> 1.056898e+02
<STATE> 12
<MEAN> 39
 -4.850520e-09 1.028881e-08 -2.457447e-09 8.340767e-09 -1.178903e-08 -1.611055e-08 2.528820e-08 -2.770926e-10 1.410933e-08 1.483425e-09 -2.894078e-09 -6.851744e-09 7.100832e-01 1.332750e-02 -2.589555e-02 -1.775305e-03 1.820767e-02 1.440495e-02 -1.096845e-02 -1.403562e-02 -2.681354e-02 -6.095405e-03 2.780387e-03 -1.148290e-03 -4.305908e-03 1.331586e-03 -9.053765e-03 -3.783359e-03 4.780923e-03 2.122159e-03 6.131073e-03 8.621823e-03 7.099930e-03 9.842527e-03 9.067087e-03 1.861116e-03 4.151754e-04 1.593654e-04 -1.564158e-03
<VARIANCE> 39
 4.872061e+01 8.793840e+01 4.467797e+01 5.986339e+01 4.655360e+01 5.547997e+01 5.233102e+01 5.238749e+01 4.623668e+01 4.285940e+01 4.554256e+01 4.065517e+01 8.178985e-02 2.131719e+00 2.467501e+00 2.295795e+00 3.262999e+00 2.705516e+00 3.277762e+00 3.157425e+00 3.330883e+00 3.002589e+00 2.830696e+00 2.829966e+00 2.573833e+00 3.754082e-03 3.006852e-01 3.204699e-01 3.548016e-01 5.152391e-01 4.554176e-01 5.507925e-01 5.410463e-01 5.677049e-01 5.208369e-01 4.984413e-01 4.887285e-01 4.422382e-01 3.730629e-04
<GCONST> 1.056898e+02
<STATE> 13
<MEAN> 39
 -4.850520e-09 1.028881e-08 -2.457447e-09 8.340767e-09 -1.178903e-08 -1.611055e-08 2.528820e-08 -2.770926e-10 1.410933e-08 1.483425e-09 -2.894078e-09 -6.851744e-09 7.100832e-01 1.332750e-02 -2.589555e-02 -1.775305e-03 1.820767e-02 1.440495e-02 -1.096845e-02 -1.403562e-02 -2.681354e-02 -6.095405e-03 2.780387e-03 -1.148290e-03 -4.305908e-03 1.331586e-03 -9.053765e-03 -3.783359e-03 4.780923e-03 2.122159e-03 6.131073e-03 8.621823e-03 7.099930e-03 9.842527e-03 9.067087e-03 1.861116e-03 4.151754e-04 1.593654e-04 -1.564158e-03
<VARIANCE> 39
 4.872061e+01 8.793840e+01 4.467797e+01 5.986339e+01 4.655360e+01 5.547997e+01 5.233102e+01 5.238749e+01 4.623668e+01 4.285940e+01 4.554256e+01 4.065517e+01 8.178985e-02 2.131719e+00 2.467501e+00 2.295795e+00 3.262999e+00 2.705516e+00 3.277762e+00 3.157425e+00 3.330883e+00 3.002589e+00 2.830696e+00 2.829966e+00 2.573833e+00 3.754082e-03 3.006852e-01 3.204699e-01 3.548016e-01 5.152391e-01 4.554176e-01 5.507925e-01 5.410463e-01 5.677049e-01 5.208369e-01 4.984413e-01 4.887285e-01 4.422382e-01 3.730629e-04
<GCONST> 1.056898e+02
<STATE> 14
<MEAN> 39
 -4.850520e-09 1.028881e-08 -2.457447e-09 8.340767e-09 -1.178903e-08 -1.611055e-08 2.528820e-08 -2.770926e-10 1.410933e-08 1.483425e-09 -2.894078e-09 -6.851744e-09 7.100832e-01 1.332750e-02 -2.589555e-02 -1.775305e-03 1.820767e-02 1.440495e-02 -1.096845e-02 -1.403562e-02 -2.681354e-02 -6.095405e-03 2.780387e-03 -1.148290e-03 -4.305908e-03 1.331586e-03 -9.053765e-03 -3.783359e-03 4.780923e-03 2.122159e-03 6.131073e-03 8.621823e-03 7.099930e-03 9.842527e-03 9.067087e-03 1.861116e-03 4.151754e-04 1.593654e-04 -1.564158e-03
<VARIANCE> 39
 4.872061e+01 8.793840e+01 4.467797e+01 5.986339e+01 4.655360e+01 5.547997e+01 5.233102e+01 5.238749e+01 4.623668e+01 4.285940e+01 4.554256e+01 4.065517e+01 8.178985e-02 2.131719e+00 2.467501e+00 2.295795e+00 3.262999e+00 2.705516e+00 3.277762e+00 3.157425e+00 3.330883e+00 3.002589e+00 2.830696e+00 2.829966e+00 2.573833e+00 3.754082e-03 3.006852e-01 3.204699e-01 3.548016e-01 5.152391e-01 4.554176e-01 5.507925e-01 5.410463e-01 5.677049e-01 5.208369e-01 4.984413e-01 4.887285e-01 4.422382e-01 3.730629e-04
<GCONST> 1.056898e+02
<TRANSP> 15
 0.000000e+00 1.000000e+00 0.000000e+00 0.000000e+00 0.000000e+00 0.000000e+00 0.000000e+00 0.000000e+00 0.000000e+00 0.000000e+00 0.000000e+00 0.000000e+00 0.000000e+00 0.000000e+00 0.000000e+00
 0.000000e+00 5.000000e-01 5.000000e-01 0.000000e+00 0.000000e+00 0.000000e+00 0.000000e+00 0.000000e+00 0.000000e+00 0.000000e+00 0.000000e+00 0.000000e+00 0.000000e+00 0.000000e+00 0.000000e+00
 0.000000e+00 0.000000e+00 5.000000e-01 5.000000e-01 0.000000e+00 0.000000e+00 0.000000e+00 0.000000e+00 0.000000e+00 0.000000e+00 0.000000e+00 0.000000e+00 0.000000e+00 0.000000e+00 0.000000e+00
 0.000000e+00 0.000000e+00 0.000000e+00 5.000000e-01 5.000000e-01 0.000000e+00 0.000000e+00 0.000000e+00 0.000000e+00 0.000000e+00 0.000000e+00 0.000000e+00 0.000000e+00 0.000000e+00 0.000000e+00
 0.000000e+00 0.000000e+00 0.000000e+00 0.000000e+00 5.000000e-01 5.000000e-01 0.000000e+00 0.000000e+00 0.000000e+00 0.000000e+00 0.000000e+00 0.000000e+00 0.000000e+00 0.000000e+00 0.000000e+00
 0.000000e+00 0.000000e+00 0.000000e+00 0.000000e+00 0.000000e+00 5.000000e-01 5.000000e-01 0.000000e+00 0.000000e+00 0.000000e+00 0.000000e+00 0.000000e+00 0.000000e+00 0.000000e+00 0.000000e+00
 0.000000e+00 0.000000e+00 0.000000e+00 0.000000e+00 0.000000e+00 0.000000e+00 5.000000e-01 5.000000e-01 0.000000e+00 0.000000e+00 0.000000e+00 0.000000e+00 0.000000e+00 0.000000e+00 0.000000e+00
 0.000000e+00 0.000000e+00 0.000000e+00 0.000000e+00 0.000000e+00 0.000000e+00 0.000000e+00 5.000000e-01 5.000000e-01 0.000000e+00 0.000000e+00 0.000000e+00 0.000000e+00 0.000000e+00 0.000000e+00
 0.000000e+00 0.000000e+00 0.000000e+00 0.000000e+00 0.000000e+00 0.000000e+00 0.000000e+00 0.000000e+00 5.000000e-01 5.000000e-01 0.000000e+00 0.000000e+00 0.000000e+00 0.000000e+00 0.000000e+00
 0.000000e+00 0.000000e+00 0.000000e+00 0.000000e+00 0.000000e+00 0.000000e+00 0.000000e+00 0.000000e+00 0.000000e+00 5.000000e-01 5.000000e-01 0.000000e+00 0.000000e+00 0.000000e+00 0.000000e+00
 0.000000e+00 0.000000e+00 0.000000e+00 0.000000e+00 0.000000e+00 0.000000e+00 0.000000e+00 0.000000e+00 0.000000e+00 0.000000e+00 5.000000e-01 5.000000e-01 0.000000e+00 0.000000e+00 0.000000e+00
 0.000000e+00 0.000000e+00 0.000000e+00 0.000000e+00 0.000000e+00 0.000000e+00 0.000000e+00 0.000000e+00 0.000000e+00 0.000000e+00 0.000000e+00 5.000000e-01 5.000000e-01 0.000000e+00 0.000000e+00
 0.000000e+00 0.000000e+00 0.000000e+00 0.000000e+00 0.000000e+00 0.000000e+00 0.000000e+00 0.000000e+00 0.000000e+00 0.000000e+00 0.000000e+00 0.000000e+00 5.000000e-01 5.000000e-01 0.000000e+00
 0.000000e+00 0.000000e+00 0.000000e+00 0.000000e+00 0.000000e+00 0.000000e+00 0.000000e+00 0.000000e+00 0.000000e+00 0.000000e+00 0.000000e+00 0.000000e+00 0.000000e+00 5.000000e-01 5.000000e-01
 0.000000e+00 0.000000e+00 0.000000e+00 0.000000e+00 0.000000e+00 0.000000e+00 0.000000e+00 0.000000e+00 0.000000e+00 0.000000e+00 0.000000e+00 0.000000e+00 0.000000e+00 0.000000e+00 0.000000e+00
<ENDHMM>
