~o
<STREAMINFO> 1 39
<VECSIZE> 39<NULLD><MFCC_E_D_A_Z><DIAGC>
~s "silst"
<NUMMIXES> 3
<MIXTURE> 1 3.012289e-01
<MEAN> 39
 -2.079929e+00 3.050184e-01 2.647876e+00 3.138190e+00 2.896087e+00 4.190520e+00 1.574266e+00 3.576363e+00 3.613777e+00 1.618876e+00 2.105287e+00 9.944831e-01 -6.200334e-02 6.870567e-02 2.291426e-01 1.243845e-01 -4.740244e-02 -6.345132e-02 7.819428e-02 5.398308e-02 6.152564e-02 3.204526e-02 -2.039479e-02 -5.647042e-02 -3.764039e-04 -4.139869e-03 -1.215682e-02 -2.176399e-02 1.022143e-02 1.596453e-02 1.097398e-02 2.435366e-02 1.645968e-02 -1.907259e-02 -1.709239e-02 2.384972e-02 1.089589e-02 4.761821e-03 3.961295e-03
<VARIANCE> 39
 8.347209e+00 3.520140e+01 1.664401e+01 2.094205e+01 2.115476e+01 2.282322e+01 2.386952e+01 2.848355e+01 1.749622e+01 2.331613e+01 2.139875e+01 1.691106e+01 7.578806e-03 2.295429e-01 6.202675e-01 5.856466e-01 8.066658e-01 1.101804e+00 1.206875e+00 1.297508e+00 1.443695e+00 1.383762e+00 1.543575e+00 1.366921e+00 1.259558e+00 1.095006e-04 5.625774e-02 1.056891e-01 1.137448e-01 1.628835e-01 2.250562e-01 2.600883e-01 2.695139e-01 2.954287e-01 2.920323e-01 3.006891e-01 2.818463e-01 2.606088e-01 5.322866e-05
<GCONST> 6.396494e+01
<MIXTURE> 2 3.841986e-01
<MEAN> 39
 -1.990328e+00 -4.925575e+00 9.046602e-01 3.305091e+00 3.594870e+00 2.851478e+00 1.341409e+00 7.887324e-01 2.986094e+00 2.545851e+00 2.498680e+00 1.499091e+00 1.044440e-01 -7.969204e-01 -6.692193e-01 -6.347713e-01 -5.325280e-01 -3.676019e-01 -2.024752e-01 -7.589966e-02 3.021981e-01 3.349349e-01 2.542874e-01 4.227698e-01 2.150101e-01 -7.471916e-02 3.873669e-01 4.569217e-01 3.435480e-01 2.208598e-01 1.399841e-01 1.493392e-02 -5.753772e-02 -8.630424e-02 -1.243476e-01 -2.086417e-01 -2.227754e-01 -1.604344e-01 2.440067e-02
<VARIANCE> 39
 1.171775e+01 4.170792e+01 2.442983e+01 3.219755e+01 2.864559e+01 3.071165e+01 3.168386e+01 3.878841e+01 3.570317e+01 3.401970e+01 3.406503e+01 2.350185e+01 1.768661e-02 6.981006e-01 1.256362e+00 1.434960e+00 1.764548e+00 2.222307e+00 2.451214e+00 2.631701e+00 3.004492e+00 3.004195e+00 2.786756e+00 2.567718e+00 2.428712e+00 2.000278e-03 8.029379e-02 1.510207e-01 2.044141e-01 2.364028e-01 3.556678e-01 4.172531e-01 4.120908e-01 5.069891e-01 5.444860e-01 4.957406e-01 4.446770e-01 4.159124e-01 1.698654e-04
<GCONST> 8.789075e+01
<MIXTURE> 3 3.145652e-01
<MEAN> 39
 -2.748896e+00 -3.015710e+00 4.321987e+00 5.249873e+00 5.971164e+00 5.533938e+00 4.135651e+00 3.517622e+00 3.821836e+00 3.085178e+00 2.367676e+00 1.914546e+00 8.714888e-02 2.845531e-01 6.701142e-01 2.669137e-01 1.970299e-01 -1.213597e-01 -1.240536e-01 -1.879044e-01 -1.635850e-01 -6.925141e-02 -2.139477e-02 -9.335212e-02 -1.467216e-01 3.767844e-02 4.079142e-01 2.755481e-01 -2.455557e-01 -3.155367e-01 -4.347982e-01 -3.418338e-01 -3.670568e-01 -2.570415e-01 -2.389067e-01 -1.085592e-01 -7.304635e-02 -1.432840e-03 3.021347e-02
<VARIANCE> 39
 1.878284e+01 4.487053e+01 3.929713e+01 3.296793e+01 3.646339e+01 4.865214e+01 3.717695e+01 4.610552e+01 3.799632e+01 3.007278e+01 3.594689e+01 2.464795e+01 2.638280e-02 2.619184e+00 3.133172e+00 2.838388e+00 2.812993e+00 3.406663e+00 3.496757e+00 3.628304e+00 3.681613e+00 3.540142e+00 2.855346e+00 3.072415e+00 2.393262e+00 7.675616e-03 4.694943e-01 6.175988e-01 5.346626e-01 5.220644e-01 6.699496e-01 7.383493e-01 7.123955e-01 7.015740e-01 7.134342e-01 5.932239e-01 6.874013e-01 4.998638e-01 9.746477e-04
<GCONST> 1.066188e+02
~h "#i"
<BEGINHMM>
<NUMSTATES> 15
<STATE> 2
<NUMMIXES> 22
<MIXTURE> 2 1.852469e-02
<MEAN> 39
 1.289738e+00 1.099843e+01 -3.516990e+00 -1.098536e+00 -5.716496e+00 -5.677027e+00 1.273008e+00 -1.149704e+00 -3.223495e+00 -7.160571e+00 -7.290029e+00 -1.144431e+00 7.217131e-01 -1.670454e+00 5.357177e-04 -7.740460e-01 -6.255648e-01 -7.386380e-01 -6.143508e-01 -1.370110e+00 -1.116173e+00 -1.463446e-01 5.921106e-01 3.977131e+00 4.861558e+00 5.661926e-02 -1.123443e-01 -4.524471e-01 1.446788e-02 4.560048e-02 1.692708e-01 3.179348e-01 1.733013e-01 3.442666e-01 3.609990e-01 9.301708e-01 7.396851e-01 6.154398e-01 -4.397891e-03
<VARIANCE> 39
 2.512761e+01 2.046775e+01 1.275596e+01 8.008079e+00 1.773478e+01 1.129213e+01 9.938454e+00 1.601144e+01 2.377017e+01 3.133196e+01 4.141990e+01 6.205378e+01 3.836343e-03 4.129931e-01 7.767614e-01 3.972073e-01 9.480176e-01 6.239594e-01 1.111712e+00 1.098534e+00 1.609172e+00 9.273562e-01 2.985269e+00 1.597777e+00 2.376858e+00 3.823735e-04 1.995482e-01 2.466106e-01 1.258621e-01 1.170308e-01 1.411657e-01 2.140162e-01 2.426783e-01 2.504818e-01 1.824213e-01 4.150090e-01 6.105055e-01 7.277334e-01 9.390579e-05
<GCONST> 6.819643e+01
<MIXTURE> 3 5.799346e-03
<MEAN> 39
 -5.151105e+00 1.116273e+01 -1.231594e+00 -4.109067e+00 -6.146912e+00 -4.687452e+00 2.343185e+00 1.920723e+00 1.063812e+01 1.485520e+01 1.271968e+01 1.037042e+01 8.060125e-01 -1.039594e+00 3.650711e-01 5.628948e-01 3.918429e-01 -9.019614e-03 2.003273e-01 -1.316904e+00 -7.956677e-01 1.697052e+00 2.997648e+00 2.941830e+00 1.596501e+00 2.826706e-02 5.366724e-01 1.589624e-02 -4.476374e-02 1.086795e-01 1.369853e-01 3.073229e-01 5.602058e-01 5.521488e-01 -7.920230e-02 -7.221264e-01 -1.425551e+00 -1.154987e+00 -1.522168e-02
<VARIANCE> 39
 1.174584e+01 9.961015e+00 3.566649e+01 2.129249e+01 8.116203e+00 1.367138e+01 4.477218e+01 2.283949e+01 7.286571e+01 2.933894e+01 2.610288e+01 7.536230e+01 1.837475e-02 5.976530e-01 1.065878e+00 9.820150e-01 7.457503e-01 2.838186e-01 3.271292e-01 7.729720e-01 2.498699e+00 3.197680e+00 2.764693e+00 2.751862e+00 3.128510e+00 2.853913e-04 1.189435e-01 4.298174e-01 2.516699e-01 2.633982e-01 1.141699e-01 2.183054e-01 4.423882e-01 1.904578e-01 8.516692e-01 7.522506e-01 5.725081e-01 4.636744e-01 3.286603e-04
<GCONST> 7.801073e+01
<MIXTURE> 4 5.126658e-02
<MEAN> 39
 3.026504e+00 1.444508e+01 -4.155197e+00 -4.183733e+00 -1.718408e+00 -4.968112e+00 3.174764e+00 7.042690e+00 -5.074855e-01 4.394013e+00 -3.968449e+00 2.784887e+00 7.021843e-01 4.095618e-01 1.055155e+00 -2.843309e-02 9.833142e-01 -2.757234e-01 5.087167e-01 -4.349013e-02 -3.485675e-01 -8.500010e-02 8.281560e-01 1.014010e-01 1.597204e+00 -1.644458e-02 -2.194806e-01 -5.584517e-01 5.323200e-02 -2.454025e-01 -1.446943e-01 -6.327534e-02 -5.584692e-01 -6.012207e-01 -2.890554e-01 -6.303220e-01 -3.622356e-02 -4.931141e-01 1.048672e-02
<VARIANCE> 39
 5.815811e+00 1.101612e+01 8.999106e+00 3.540862e+01 1.283622e+01 9.854139e+00 2.045086e+01 1.576691e+01 1.930502e+01 2.682854e+01 4.726845e+01 4.676119e+01 4.749955e-03 6.948327e-01 1.633322e+00 1.407656e+00 2.006288e+00 1.382645e+00 1.662613e+00 2.366207e+00 2.591777e+00 2.254020e+00 2.893285e+00 4.831976e+00 3.532951e+00 6.504916e-04 6.829331e-02 1.863162e-01 1.238522e-01 2.211705e-01 3.524958e-01 3.308760e-01 2.937136e-01 3.352972e-01 2.762181e-01 4.560173e-01 6.512525e-01 5.220178e-01 7.665274e-05
<GCONST> 7.694865e+01
<MIXTURE> 5 5.799346e-03
<MEAN> 39
 -5.151105e+00 1.116273e+01 -1.231594e+00 -4.109067e+00 -6.146912e+00 -4.687452e+00 2.343185e+00 1.920723e+00 1.063812e+01 1.485520e+01 1.271968e+01 1.037042e+01 8.060125e-01 -1.039594e+00 3.650711e-01 5.628948e-01 3.918429e-01 -9.019614e-03 2.003273e-01 -1.316904e+00 -7.956677e-01 1.697052e+00 2.997648e+00 2.941830e+00 1.596501e+00 2.826706e-02 5.366724e-01 1.589624e-02 -4.476374e-02 1.086795e-01 1.369853e-01 3.073229e-01 5.602058e-01 5.521488e-01 -7.920230e-02 -7.221264e-01 -1.425551e+00 -1.154987e+00 -1.522168e-02
<VARIANCE> 39
 1.174584e+01 9.961015e+00 3.566649e+01 2.129249e+01 8.116203e+00 1.367138e+01 4.477218e+01 2.283949e+01 7.286571e+01 2.933894e+01 2.610288e+01 7.536230e+01 1.837475e-02 5.976530e-01 1.065878e+00 9.820150e-01 7.457503e-01 2.838186e-01 3.271292e-01 7.729720e-01 2.498699e+00 3.197680e+00 2.764693e+00 2.751862e+00 3.128510e+00 2.853913e-04 1.189435e-01 4.298174e-01 2.516699e-01 2.633982e-01 1.141699e-01 2.183054e-01 4.423882e-01 1.904578e-01 8.516692e-01 7.522506e-01 5.725081e-01 4.636744e-01 3.286603e-04
<GCONST> 7.801073e+01
<MIXTURE> 6 7.324482e-02
<MEAN> 39
 1.322241e+00 1.232117e+01 -4.445200e+00 -2.617942e+00 -4.557292e+00 -3.340914e+00 -2.092040e+00 2.766599e-01 -4.970203e+00 -2.361985e+00 -5.819785e+00 -7.678898e-01 7.025099e-01 4.942268e-02 4.153802e-01 -4.346005e-02 2.677613e-01 -3.131254e-01 1.192841e-02 -9.048420e-02 -4.217944e-01 -4.166461e-01 -4.760590e-02 -3.143246e-01 8.604874e-01 9.802454e-03 -1.024951e-01 8.276597e-02 1.332009e-01 7.121873e-02 7.653254e-02 -2.968166e-01 -1.628836e-01 -2.053409e-02 2.233105e-01 1.678183e-01 4.117154e-01 1.437805e-01 9.068099e-03
<VARIANCE> 39
 1.212177e+01 1.927562e+01 1.858099e+01 1.833644e+01 1.447569e+01 1.390197e+01 2.611972e+01 3.319968e+01 3.312418e+01 1.885086e+01 3.443702e+01 1.714311e+01 8.555538e-03 4.677360e-01 6.076276e-01 4.560144e-01 1.126539e+00 1.067917e+00 1.710537e+00 1.485964e+00 1.327726e+00 2.188387e+00 1.484376e+00 2.576894e+00 2.369454e+00 4.578940e-04 8.512450e-02 7.669770e-02 1.316554e-01 1.791614e-01 1.391672e-01 3.026990e-01 3.588911e-01 1.818603e-01 3.960399e-01 3.291828e-01 3.708113e-01 2.354707e-01 3.535428e-05
<GCONST> 6.834405e+01
<MIXTURE> 7 3.346621e-02
<MEAN> 39
 -9.731380e-01 1.249250e+01 -3.009243e+00 -9.698304e-01 -2.992032e+00 -8.927083e+00 3.355124e+00 -2.889681e+00 2.409150e+00 -8.616747e-01 -8.464257e-01 8.456918e-01 7.265552e-01 -1.782329e-01 1.543868e+00 -1.201386e+00 2.104110e+00 -1.513356e+00 9.180228e-01 -1.526327e+00 -9.730191e-01 -1.553329e+00 -1.405709e+00 -7.600322e-01 7.753122e-01 -9.467054e-03 4.094404e-01 -1.085228e+00 5.964236e-01 -1.913045e-01 -3.862682e-01 6.885784e-01 -1.917218e-01 4.473261e-01 -2.909484e-01 2.122653e-02 -2.721846e-01 -2.132460e-01 7.456819e-03
<VARIANCE> 39
 1.174914e+01 2.585498e+01 1.859391e+01 3.500701e+01 2.881613e+01 3.002379e+01 2.900387e+01 2.256300e+01 2.813989e+01 3.971223e+01 2.820381e+01 3.035148e+01 1.453933e-02 8.476004e-01 1.585179e+00 1.365881e+00 2.820697e+00 2.670732e+00 3.641474e+00 1.969044e+00 3.392817e+00 3.836555e+00 2.296074e+00 3.492732e+00 2.062569e+00 4.261870e-04 1.049635e-01 2.358517e-01 2.574846e-01 5.896573e-01 6.268353e-01 6.067585e-01 3.809604e-01 3.598687e-01 5.493162e-01 6.672183e-01 4.353426e-01 3.834475e-01 6.643364e-05
<GCONST> 8.791599e+01
<MIXTURE> 8 5.339447e-02
<MEAN> 39
 3.868859e+00 8.745869e+00 7.742223e-01 -3.127820e+00 -7.248812e+00 -6.456792e+00 -7.938256e+00 -3.061669e+00 -3.103964e+00 -3.310427e+00 -4.697437e-01 -2.037848e+00 6.503891e-01 6.285811e-01 3.135577e+00 -7.619116e-01 -1.836844e+00 -1.625488e+00 -1.640571e+00 -2.113535e+00 -1.769084e-02 -1.099317e+00 -1.244729e+00 4.070670e-01 -2.235560e+00 1.461377e-01 -8.103613e-01 -7.195991e-01 -1.232727e-01 3.249850e-01 7.233747e-01 9.202366e-01 8.465577e-01 7.353896e-01 7.163818e-01 5.079606e-01 2.908566e-01 3.177723e-01 -4.084968e-02
<VARIANCE> 39
 1.385142e+01 6.271504e+01 3.263082e+01 3.121900e+01 3.826960e+01 2.713250e+01 3.892807e+01 2.048036e+01 2.491830e+01 3.146840e+01 2.203497e+01 4.628763e+01 1.766883e-02 1.313510e+00 4.004492e+00 2.184205e+00 3.303092e+00 2.924038e+00 3.069595e+00 3.231302e+00 2.238657e+00 2.309155e+00 2.746358e+00 3.685001e+00 3.417069e+00 6.029075e-03 1.945754e-01 4.767362e-01 4.616722e-01 4.702462e-01 5.266085e-01 2.887203e-01 3.186957e-01 3.009935e-01 3.619280e-01 4.208874e-01 4.694097e-01 6.534304e-01 2.586473e-04
<GCONST> 9.617529e+01
<MIXTURE> 9 3.912438e-02
<MEAN> 39
 -8.433483e-02 1.848502e+00 -4.042344e+00 -4.581913e+00 -4.076208e+00 -7.378366e-01 5.478950e+00 5.478363e+00 6.332264e+00 4.362468e+00 5.439526e+00 1.975442e+00 5.502405e-01 -1.283612e-01 1.823663e+00 -9.989030e-01 3.190034e-01 -1.095376e+00 -1.878014e+00 -1.652984e+00 -3.841838e-01 -8.141762e-01 5.208969e-01 -5.763098e-02 -3.313651e-02 5.695580e-02 1.483871e-01 1.095361e-01 3.055861e-01 2.625739e-01 4.709104e-02 1.252341e-01 -6.672042e-01 -2.925752e-01 -4.659475e-01 -5.279606e-02 -4.695220e-01 -7.448331e-02 1.053655e-02
<VARIANCE> 39
 1.573188e+01 4.597749e+01 3.520081e+01 1.880048e+01 2.336216e+01 7.616763e+01 7.980170e+01 6.223346e+01 1.001567e+02 1.856597e+02 1.751152e+02 1.189774e+02 3.190401e-02 1.261700e+00 4.049280e+00 3.451959e+00 3.691987e+00 3.079218e+00 5.891796e+00 6.318803e+00 9.105917e+00 1.163417e+01 1.472960e+01 1.195858e+01 1.243215e+01 6.671425e-03 3.772748e-01 7.531800e-01 5.860618e-01 5.730386e-01 5.549566e-01 1.055315e+00 1.335908e+00 1.574760e+00 2.125190e+00 3.286025e+00 2.686714e+00 2.715982e+00 7.121798e-04
<GCONST> 1.278861e+02
<MIXTURE> 10 3.346621e-02
<MEAN> 39
 -9.731380e-01 1.249250e+01 -3.009243e+00 -9.698304e-01 -2.992032e+00 -8.927083e+00 3.355124e+00 -2.889681e+00 2.409150e+00 -8.616747e-01 -8.464257e-01 8.456918e-01 7.265552e-01 -1.782329e-01 1.543868e+00 -1.201386e+00 2.104110e+00 -1.513356e+00 9.180228e-01 -1.526327e+00 -9.730191e-01 -1.553329e+00 -1.405709e+00 -7.600322e-01 7.753122e-01 -9.467054e-03 4.094404e-01 -1.085228e+00 5.964236e-01 -1.913045e-01 -3.862682e-01 6.885784e-01 -1.917218e-01 4.473261e-01 -2.909484e-01 2.122653e-02 -2.721846e-01 -2.132460e-01 7.456819e-03
<VARIANCE> 39
 1.174914e+01 2.585498e+01 1.859391e+01 3.500701e+01 2.881613e+01 3.002379e+01 2.900387e+01 2.256300e+01 2.813989e+01 3.971223e+01 2.820381e+01 3.035148e+01 1.453933e-02 8.476004e-01 1.585179e+00 1.365881e+00 2.820697e+00 2.670732e+00 3.641474e+00 1.969044e+00 3.392817e+00 3.836555e+00 2.296074e+00 3.492732e+00 2.062569e+00 4.261870e-04 1.049635e-01 2.358517e-01 2.574846e-01 5.896573e-01 6.268353e-01 6.067585e-01 3.809604e-01 3.598687e-01 5.493162e-01 6.672183e-01 4.353426e-01 3.834475e-01 6.643364e-05
<GCONST> 8.791599e+01
<MIXTURE> 11 7.398565e-02
<MEAN> 39
 -2.218450e+00 1.428422e+01 2.502985e+00 -4.169894e+00 -1.615772e+00 -7.692605e+00 -7.431657e+00 4.565928e-01 7.488530e-01 -3.111747e+00 4.962325e+00 -6.746195e-02 7.885903e-01 -4.316160e-01 2.160448e+00 -1.215883e+00 2.007493e+00 -6.958506e-01 -1.071029e-02 -1.200445e+00 -8.251608e-01 -3.343539e-01 -2.120959e+00 1.049758e+00 -1.120905e+00 4.107714e-03 3.305927e-01 -8.912491e-01 1.391381e-01 9.206079e-02 -7.015737e-01 6.634956e-01 2.619968e-01 3.486086e-01 -3.524870e-01 5.702072e-01 -4.560024e-01 -3.403522e-01 3.989635e-03
<VARIANCE> 39
 6.409340e+00 1.857467e+01 1.220121e+01 1.642572e+01 1.571632e+01 2.112536e+01 1.703713e+01 1.767357e+01 2.543351e+01 2.949974e+01 1.598308e+01 1.818659e+01 6.443747e-03 4.286543e-01 1.022874e+00 5.370236e-01 1.078816e+00 1.587879e+00 1.604133e+00 1.882253e+00 1.846983e+00 2.026494e+00 1.753659e+00 1.406352e+00 1.361909e+00 1.743613e-04 5.741712e-02 1.713866e-01 1.275636e-01 3.407055e-01 2.380207e-01 2.853508e-01 2.878797e-01 3.023843e-01 2.950037e-01 2.490916e-01 4.171572e-01 3.291900e-01 2.480421e-05
<GCONST> 6.650355e+01
<MIXTURE> 12 3.532837e-02
<MEAN> 39
 3.168842e+00 8.914687e+00 -2.751456e+00 -2.836545e+00 -4.223300e+00 -2.586379e+00 2.756341e+00 5.305929e+00 6.511771e+00 6.338045e+00 3.967821e+00 4.070436e+00 6.242926e-01 2.612552e-01 2.599007e+00 -3.162874e+00 -2.707923e+00 -3.266844e+00 -3.461025e+00 -1.217617e+00 -1.939486e+00 -1.187022e+00 -6.648198e-01 -3.813598e-01 1.499619e+00 1.956060e-01 -6.392211e-01 -8.001959e-01 6.782629e-01 7.085826e-01 8.201462e-01 8.388456e-01 -1.410909e-01 -2.351599e-01 -6.502960e-01 -5.083551e-01 -3.700300e-01 -2.679223e-01 -3.493772e-02
<VARIANCE> 39
 1.276790e+01 4.865097e+01 2.502764e+01 2.045175e+01 2.572626e+01 2.618042e+01 3.553153e+01 2.315670e+01 3.867825e+01 4.059327e+01 3.900100e+01 4.337728e+01 2.312324e-02 2.073238e+00 2.418933e+00 2.064714e+00 2.050336e+00 1.957658e+00 2.427053e+00 2.862393e+00 1.956880e+00 3.598958e+00 3.547743e+00 5.120786e+00 5.907762e+00 1.784961e-03 2.034211e-01 3.858109e-01 3.652750e-01 3.641318e-01 4.793214e-01 5.107661e-01 5.439254e-01 4.011981e-01 4.574455e-01 7.445915e-01 7.926004e-01 7.585233e-01 4.829020e-04
<GCONST> 9.784940e+01
<MIXTURE> 13 7.205355e-02
<MEAN> 39
 -1.322711e+00 1.093611e+01 1.197327e+00 -6.175866e+00 -3.671453e+00 -5.274803e+00 -8.330297e+00 5.154374e-02 2.791338e+00 -3.878370e+00 4.455605e+00 7.648030e-01 8.686407e-01 -1.568760e-01 1.158449e+00 -4.237715e-01 8.756191e-01 -5.196756e-01 -5.277447e-01 -5.680491e-01 -1.228563e-01 -6.021439e-01 -6.893694e-01 8.829660e-01 -1.278358e+00 2.202966e-04 4.542486e-02 -2.435172e-01 3.406180e-02 -6.692126e-02 -1.767132e-01 2.567071e-01 1.494514e-01 6.365331e-02 -9.059270e-02 1.385601e-01 -3.359128e-01 -3.196294e-02 1.066306e-03
<VARIANCE> 39
 8.827437e+00 1.622858e+01 1.122669e+01 1.901085e+01 1.708027e+01 1.094107e+01 2.205625e+01 2.021949e+01 1.964344e+01 1.838761e+01 2.599049e+01 3.731719e+01 4.149813e-03 2.147585e-01 4.727944e-01 5.814656e-01 7.680602e-01 7.737794e-01 9.749255e-01 1.166576e+00 8.984248e-01 1.341398e+00 1.358057e+00 1.451691e+00 1.427932e+00 1.321593e-04 1.860097e-02 7.797556e-02 1.045425e-01 9.770313e-02 1.482937e-01 1.266338e-01 2.383271e-01 1.667513e-01 1.097746e-01 2.052324e-01 1.791656e-01 2.977083e-01 6.617282e-06
<GCONST> 5.271652e+01
<MIXTURE> 14 3.532837e-02
<MEAN> 39
 3.168842e+00 8.914687e+00 -2.751456e+00 -2.836545e+00 -4.223300e+00 -2.586379e+00 2.756341e+00 5.305929e+00 6.511771e+00 6.338045e+00 3.967821e+00 4.070436e+00 6.242926e-01 2.612552e-01 2.599007e+00 -3.162874e+00 -2.707923e+00 -3.266844e+00 -3.461025e+00 -1.217617e+00 -1.939486e+00 -1.187022e+00 -6.648198e-01 -3.813598e-01 1.499619e+00 1.956060e-01 -6.392211e-01 -8.001959e-01 6.782629e-01 7.085826e-01 8.201462e-01 8.388456e-01 -1.410909e-01 -2.351599e-01 -6.502960e-01 -5.083551e-01 -3.700300e-01 -2.679223e-01 -3.493772e-02
<VARIANCE> 39
 1.276790e+01 4.865097e+01 2.502764e+01 2.045175e+01 2.572626e+01 2.618042e+01 3.553153e+01 2.315670e+01 3.867825e+01 4.059327e+01 3.900100e+01 4.337728e+01 2.312324e-02 2.073238e+00 2.418933e+00 2.064714e+00 2.050336e+00 1.957658e+00 2.427053e+00 2.862393e+00 1.956880e+00 3.598958e+00 3.547743e+00 5.120786e+00 5.907762e+00 1.784961e-03 2.034211e-01 3.858109e-01 3.652750e-01 3.641318e-01 4.793214e-01 5.107661e-01 5.439254e-01 4.011981e-01 4.574455e-01 7.445915e-01 7.926004e-01 7.585233e-01 4.829020e-04
<GCONST> 9.784940e+01
<MIXTURE> 15 8.595876e-02
<MEAN> 39
 2.630581e+00 1.124622e+01 -3.651870e+00 -2.954139e+00 -5.760512e+00 -4.142717e+00 7.916505e-01 2.855578e+00 9.888637e-01 4.441087e+00 4.236069e-01 6.143252e+00 7.301850e-01 -7.746722e-01 8.998157e-01 -1.106809e+00 -8.364535e-01 -1.106023e+00 -1.547835e+00 -1.095571e+00 -1.549799e+00 -2.150539e+00 -1.881380e+00 -1.945506e+00 -7.839470e-02 9.396017e-02 -6.377908e-01 -1.070299e+00 6.299599e-01 7.654454e-01 8.788233e-01 8.548921e-01 4.276166e-02 1.288743e-01 7.467516e-02 -1.904807e-01 6.576752e-03 -4.673082e-01 -4.277036e-02
<VARIANCE> 39
 1.450935e+01 5.802876e+01 1.998545e+01 2.048965e+01 1.725252e+01 2.303505e+01 2.832097e+01 3.507798e+01 2.827163e+01 2.189038e+01 4.568190e+01 4.216503e+01 1.572023e-02 1.290568e+00 2.190192e+00 1.488788e+00 1.102543e+00 1.757094e+00 1.992916e+00 2.421094e+00 2.619265e+00 2.741701e+00 2.170466e+00 3.506757e+00 4.798569e+00 1.234929e-03 1.288536e-01 3.576665e-01 3.003888e-01 3.231693e-01 3.836204e-01 4.863141e-01 4.365031e-01 4.348939e-01 4.391357e-01 3.453826e-01 6.900521e-01 5.428376e-01 3.418096e-04
<GCONST> 9.009788e+01
<MIXTURE> 16 6.111389e-02
<MEAN> 39
 -7.060221e-01 9.274916e+00 3.396241e+00 -1.059821e+01 2.471185e-01 -9.319499e+00 -2.173155e+00 3.429080e+00 1.594461e+00 9.579670e-01 1.350782e+00 -5.886904e-01 8.200122e-01 -9.108067e-01 3.500737e+00 -1.865457e+00 1.366415e+00 3.676755e-01 -2.687833e+00 -5.415086e-01 -1.242254e+00 -8.537749e-01 -1.032963e+00 7.549394e-01 2.609731e-01 -3.961093e-03 3.111290e-01 -7.623868e-01 -3.350204e-01 1.297478e+00 -1.045097e+00 8.216723e-01 4.603073e-01 -5.075073e-01 -4.961314e-01 -2.149877e-01 -2.981887e-01 -1.339876e-01 1.337414e-03
<VARIANCE> 39
 1.374607e+01 2.219959e+01 2.232242e+01 1.332806e+01 1.699273e+01 3.351985e+01 4.530782e+01 2.289254e+01 3.080302e+01 2.293764e+01 3.393898e+01 2.939593e+01 6.159178e-03 3.998107e-01 1.567070e+00 1.033122e+00 1.875188e+00 2.092896e+00 3.210460e+00 2.946952e+00 2.856622e+00 2.567389e+00 5.060465e+00 2.708405e+00 2.890204e+00 2.273791e-04 9.848150e-02 1.809899e-01 3.260891e-01 3.129064e-01 3.109413e-01 5.209892e-01 4.860534e-01 4.968323e-01 6.768548e-01 3.401874e-01 4.776328e-01 5.860685e-01 2.202942e-05
<GCONST> 8.220531e+01
<MIXTURE> 17 1.628827e-02
<MEAN> 39
 -1.549599e+00 9.479241e+00 -6.578519e+00 -6.132544e+00 -5.590281e+00 -4.171388e+00 5.162150e+00 2.388063e+00 5.208862e+00 3.338681e+00 1.873916e+00 3.609150e+00 8.131596e-01 -2.269821e+00 -1.271677e-01 -7.613857e-01 -2.614696e-01 -7.842230e-01 -1.549359e+00 -1.923781e+00 -1.681221e+00 7.791594e-01 3.315970e+00 4.192533e+00 3.621228e+00 7.803629e-02 1.224198e-01 -4.174949e-01 1.220966e+00 8.484257e-01 9.543911e-01 1.137237e+00 -3.577281e-02 1.724778e-01 -1.215543e-01 2.019355e-02 -2.198054e-01 -4.703650e-01 -5.100984e-02
<VARIANCE> 39
 1.370395e+01 2.555123e+01 2.422126e+01 2.613574e+01 1.887898e+01 9.650693e+00 1.917095e+01 1.003947e+01 5.420791e+01 4.143249e+01 2.406042e+01 5.053530e+01 6.895976e-03 3.891265e-01 7.217973e-01 1.554678e+00 1.091188e+00 7.101255e-01 2.470407e+00 3.959981e+00 1.867145e+00 6.129300e+00 8.410203e+00 3.246477e+00 3.683795e+00 1.182382e-03 1.725260e-01 4.407597e-01 2.219713e-01 2.510202e-01 2.448838e-01 1.505039e-01 7.141442e-01 3.341734e-01 4.057063e-01 1.373593e+00 8.469067e-01 5.697154e-01 1.381647e-04
<GCONST> 8.540169e+01
<MIXTURE> 18 6.636035e-02
<MEAN> 39
 -1.760105e+00 9.864133e+00 -4.616442e+00 -7.434431e+00 -4.676501e+00 -8.170667e+00 -5.752180e+00 2.826402e+00 -5.894976e+00 3.537388e-01 -5.037808e+00 -6.589497e+00 8.204960e-01 2.213401e-01 1.387140e+00 -1.004636e-01 1.342013e+00 -1.011558e+00 -2.041065e-01 9.496462e-02 -7.706770e-01 -1.195112e+00 3.075939e-01 -1.160964e+00 1.497635e+00 -9.954358e-03 1.325546e-01 -1.932601e-01 3.708333e-01 4.979248e-02 2.195078e-01 6.966411e-01 2.103265e-01 -1.411491e-02 3.524234e-01 -3.442571e-01 2.986256e-01 4.256615e-01 1.930799e-03
<VARIANCE> 39
 7.044880e+00 1.179300e+01 1.806784e+01 1.998544e+01 2.068441e+01 2.438260e+01 4.793608e+01 3.166616e+01 2.151330e+01 2.637114e+01 3.124509e+01 4.538680e+01 6.215773e-03 3.662603e-01 5.665785e-01 1.443856e+00 1.371049e+00 1.681361e+00 3.022197e+00 2.490171e+00 2.344710e+00 2.866830e+00 3.653379e+00 3.251863e+00 2.805234e+00 2.538073e-04 5.196292e-02 6.716726e-02 1.623375e-01 2.590936e-01 4.883800e-01 4.887743e-01 3.317968e-01 5.264788e-01 3.956075e-01 6.144361e-01 5.267791e-01 4.465697e-01 2.620743e-05
<GCONST> 7.741827e+01
<MIXTURE> 19 4.589536e-02
<MEAN> 39
 2.762002e+00 8.839709e+00 5.175427e-02 -3.180922e+00 -7.277882e+00 -4.396571e+00 -5.871549e+00 -2.145407e+00 3.993905e-01 -2.440760e+00 2.384880e+00 -2.845511e+00 6.323789e-01 1.162077e-02 1.666809e+00 -2.399403e-01 8.346485e-01 -6.101686e-01 -2.555737e-02 -1.159515e+00 1.465119e-01 -8.280402e-01 -2.058723e-01 -1.225004e-01 -1.111316e+00 2.359973e-02 -1.743784e-01 1.797994e-02 -7.737193e-02 -1.043951e-01 1.657939e-01 1.074208e-01 1.450331e-01 1.931735e-01 3.842233e-03 7.906815e-02 -7.821880e-02 4.092052e-01 8.681791e-03
<VARIANCE> 39
 1.010079e+01 3.526530e+01 1.968690e+01 2.502580e+01 2.778283e+01 2.095881e+01 3.409179e+01 3.640848e+01 2.965532e+01 4.349986e+01 6.246496e+01 5.790216e+01 2.529151e-02 5.869311e-01 1.173019e+00 1.682557e+00 1.612989e+00 1.578348e+00 1.748384e+00 2.849580e+00 2.651604e+00 3.113580e+00 2.390398e+00 3.060076e+00 3.508881e+00 6.891208e-04 1.072280e-01 1.772141e-01 2.736902e-01 3.282619e-01 3.424359e-01 4.273041e-01 4.566923e-01 4.348146e-01 6.211725e-01 5.048509e-01 7.025676e-01 6.857453e-01 1.032792e-04
<GCONST> 8.870592e+01
<MIXTURE> 20 9.413844e-02
<MEAN> 39
 1.655253e+00 1.005979e+01 4.051771e-01 -1.389444e-01 -1.672006e+00 -1.190760e+00 3.051032e+00 2.450926e+00 2.903970e+00 4.585142e+00 1.317833e+00 4.875247e+00 6.153233e-01 2.222268e-01 1.133079e+00 -2.864702e-01 -5.730533e-02 -7.676710e-01 -6.483580e-01 -2.427953e-01 -4.536662e-01 -3.134793e-01 -1.992137e-01 -1.001228e+00 2.052150e-01 2.662644e-02 -8.474789e-02 -1.745155e-01 -1.886328e-01 -2.615008e-01 -1.767031e-01 -3.041045e-01 -2.374488e-01 -1.880070e-01 -3.381724e-01 -4.754888e-01 -3.114923e-01 -3.460864e-01 1.391517e-02
<VARIANCE> 39
 9.822441e+00 2.171757e+01 2.605212e+01 1.512507e+01 1.566673e+01 2.261926e+01 2.712275e+01 1.899454e+01 2.861683e+01 2.113746e+01 1.983484e+01 2.417274e+01 1.558403e-02 5.853132e-01 1.489714e+00 6.295524e-01 7.520338e-01 1.060573e+00 1.602488e+00 2.695896e+00 1.769920e+00 1.897512e+00 1.552000e+00 1.897867e+00 1.381051e+00 1.498349e-03 1.247224e-01 2.857995e-01 1.660541e-01 1.964902e-01 2.866227e-01 4.001108e-01 3.999866e-01 2.721951e-01 3.878739e-01 2.703394e-01 3.192457e-01 2.737586e-01 1.515474e-04
<GCONST> 7.566914e+01
<MIXTURE> 21 4.589536e-02
<MEAN> 39
 2.762002e+00 8.839709e+00 5.175427e-02 -3.180922e+00 -7.277882e+00 -4.396571e+00 -5.871549e+00 -2.145407e+00 3.993905e-01 -2.440760e+00 2.384880e+00 -2.845511e+00 6.323789e-01 1.162077e-02 1.666809e+00 -2.399403e-01 8.346485e-01 -6.101686e-01 -2.555737e-02 -1.159515e+00 1.465119e-01 -8.280402e-01 -2.058723e-01 -1.225004e-01 -1.111316e+00 2.359973e-02 -1.743784e-01 1.797994e-02 -7.737193e-02 -1.043951e-01 1.657939e-01 1.074208e-01 1.450331e-01 1.931735e-01 3.842233e-03 7.906815e-02 -7.821880e-02 4.092052e-01 8.681791e-03
<VARIANCE> 39
 1.010079e+01 3.526530e+01 1.968690e+01 2.502580e+01 2.778283e+01 2.095881e+01 3.409179e+01 3.640848e+01 2.965532e+01 4.349986e+01 6.246496e+01 5.790216e+01 2.529151e-02 5.869311e-01 1.173019e+00 1.682557e+00 1.612989e+00 1.578348e+00 1.748384e+00 2.849580e+00 2.651604e+00 3.113580e+00 2.390398e+00 3.060076e+00 3.508881e+00 6.891208e-04 1.072280e-01 1.772141e-01 2.736902e-01 3.282619e-01 3.424359e-01 4.273041e-01 4.566923e-01 4.348146e-01 6.211725e-01 5.048509e-01 7.025676e-01 6.857453e-01 1.032792e-04
<GCONST> 8.870592e+01
<MIXTURE> 22 5.356451e-02
<MEAN> 39
 7.057367e-01 9.867956e+00 -6.623217e-01 2.629030e+00 -3.949478e+00 -1.125844e+00 -2.545899e+00 4.089628e+00 -6.781068e-02 1.888983e+00 -4.842353e-01 2.298188e+00 5.773136e-01 9.443226e-01 4.621725e+00 -1.391631e-01 -1.388561e+00 -2.414955e+00 -1.854344e+00 -2.531397e+00 -5.423703e-01 -1.491620e+00 -8.770611e-01 -6.582412e-01 -5.371364e-01 1.742670e-01 -3.664188e-01 -6.735603e-01 -1.286290e-01 -5.784444e-01 3.679852e-02 -5.471558e-02 2.513783e-01 -3.436762e-01 7.033163e-02 -2.949971e-01 1.744401e-01 -1.633425e-01 -1.447040e-02
<VARIANCE> 39
 9.754223e+00 5.432514e+01 1.460863e+01 2.185854e+01 2.314376e+01 2.371326e+01 4.160576e+01 3.308741e+01 3.373474e+01 3.039086e+01 2.656631e+01 3.232130e+01 2.791687e-02 1.101051e+00 3.985109e+00 1.820140e+00 1.554783e+00 1.777874e+00 3.252860e+00 3.938753e+00 4.077483e+00 2.407887e+00 2.670687e+00 6.139636e+00 4.091295e+00 3.818603e-03 1.827324e-01 8.160164e-01 2.315450e-01 3.641353e-01 3.093277e-01 3.533507e-01 6.174368e-01 5.247903e-01 4.210081e-01 5.324497e-01 5.974656e-01 5.609772e-01 7.687748e-04
<GCONST> 9.645190e+01
<STATE> 3
<NUMMIXES> 22
<MIXTURE> 1 6.674134e-04
<MEAN> 39
 -9.222595e+00 1.809764e+01 -6.699032e+00 -3.396331e+00 -1.109437e+01 -5.139930e+00 -9.997172e+00 -6.728329e+00 6.315575e-01 -1.274921e+00 -2.745842e+00 1.092233e+01 7.603796e-01 9.300781e-01 2.345730e+00 2.992044e+00 2.299537e+00 1.047943e+00 4.057105e+00 4.249475e+00 1.445921e+00 2.896781e+00 2.139589e+00 1.963868e+00 2.581239e+00 1.365488e-02 3.678879e-01 3.823724e-01 3.414462e-01 4.357353e-01 6.398753e-01 1.196059e-01 4.225729e-01 5.186262e-01 -5.980121e-02 -4.834636e-02 4.332135e-01 -3.406338e-02 3.558413e-03
<VARIANCE> 39
 4.872061e-01 8.793840e-01 4.467797e-01 5.986339e-01 4.655360e-01 5.547996e-01 5.233102e-01 5.238749e-01 4.623668e-01 4.285940e-01 4.554256e-01 4.065517e-01 8.178985e-04 2.131719e-02 2.467501e-02 2.295795e-02 3.262999e-02 2.705516e-02 3.277762e-02 3.157425e-02 3.330883e-02 3.002589e-02 2.830696e-02 2.829966e-02 2.573832e-02 3.754082e-05 3.006852e-03 3.204699e-03 3.548016e-03 5.152391e-03 4.554176e-03 5.507925e-03 5.410463e-03 5.677049e-03 5.208369e-03 4.984413e-03 4.887285e-03 4.422382e-03 3.730628e-06
<GCONST> -7.391187e+01
<MIXTURE> 2 1.805307e-02
<MEAN> 39
 -4.896108e+00 8.730859e+00 -6.730317e+00 -3.967684e+00 -7.612175e+00 -3.677924e+00 2.571537e+00 5.453807e+00 1.466886e+01 1.714164e+01 1.236603e+01 6.943876e+00 9.221848e-01 -1.559480e-01 -3.063250e-01 -2.488336e-01 -3.906067e-01 -6.698109e-01 -1.597992e-01 1.749675e-01 4.012563e-01 1.649669e+00 1.217148e+00 -1.476680e-01 -1.847797e-01 1.264118e-02 3.895214e-01 1.536627e-01 1.317180e-01 1.595809e-01 1.591624e-01 1.651348e-01 2.033385e-01 9.813174e-03 -6.416588e-01 -1.003484e+00 -6.682618e-01 -5.460843e-01 -6.401639e-03
<VARIANCE> 39
 1.940766e+01 2.284486e+01 2.861728e+01 2.426617e+01 1.726905e+01 6.556273e+00 1.405518e+01 2.448982e+01 3.176472e+01 1.765078e+01 5.635999e+01 1.014071e+02 1.918008e-03 4.879469e-01 7.812830e-01 7.960058e-01 1.535803e+00 1.324983e+00 1.075169e+00 1.020052e+00 5.675949e-01 2.488241e+00 1.833877e+00 1.831986e+00 1.879300e+00 9.645525e-05 9.586766e-02 1.883016e-01 2.238452e-01 2.984799e-01 3.888583e-01 1.781532e-01 2.149092e-01 3.192625e-01 4.453250e-01 2.510969e-01 5.347406e-01 6.019589e-01 2.291354e-05
<GCONST> 7.008317e+01
<MIXTURE> 3 6.992945e-03
<MEAN> 39
 -6.122717e+00 3.564681e+00 -9.931418e+00 -5.826934e+00 -8.121147e+00 -1.012847e+01 -4.793555e+00 -7.642750e+00 1.303105e+00 5.477098e+00 1.186301e+01 2.425821e+01 9.500090e-01 -7.465958e-01 -2.335310e-01 -5.132615e-02 1.244906e-01 -9.362367e-01 -9.908819e-01 -1.063753e+00 -3.383817e-01 -8.413658e-02 -2.662262e-01 9.561087e-01 8.479615e-01 1.088683e-02 3.883469e-01 3.658547e-01 2.633515e-01 2.796816e-01 5.457873e-01 4.436979e-01 5.154917e-01 5.215969e-01 1.648002e-01 -1.953363e-01 -3.669269e-01 -6.090149e-01 -4.204184e-03
<VARIANCE> 39
 2.286016e+01 1.153134e+01 5.438189e+00 8.668538e+00 1.953067e+01 1.932990e+01 1.574381e+01 7.720877e+00 1.798198e+01 2.354504e+01 2.996855e+01 4.656387e+01 2.572602e-03 7.206098e-01 5.030172e-01 3.359569e-01 1.482605e+00 7.656059e-01 9.035307e-01 2.164185e+00 8.331701e-01 6.968974e-01 1.130179e+00 1.309410e+00 1.519918e+00 7.634100e-05 6.959929e-02 8.686955e-02 1.014101e-01 2.984490e-01 2.503951e-01 2.432043e-01 2.344567e-01 1.250040e-01 3.608981e-01 4.371737e-01 1.034942e-01 4.320467e-01 1.728581e-05
<GCONST> 5.778945e+01
<MIXTURE> 4 3.919398e-02
<MEAN> 39
 -8.678805e-01 1.634183e+01 -4.012812e+00 -2.723753e+00 -5.298501e+00 -4.947904e+00 2.772309e-01 7.639830e-01 -5.938026e+00 -1.575860e+00 -4.640009e+00 3.608490e+00 8.081376e-01 2.639380e-01 7.221085e-01 -9.183778e-02 9.140615e-01 -4.611284e-01 5.302883e-02 -1.191874e+00 -2.971054e-01 -3.781364e-01 1.883790e-01 -8.994532e-02 9.957941e-01 1.284284e-02 -9.188753e-02 -4.893015e-01 -1.420764e-01 -7.031494e-01 -7.404801e-02 -6.178391e-01 -1.558637e-01 -6.206816e-02 2.686327e-01 -1.249936e-01 -3.906423e-02 -5.965940e-01 2.113549e-03
<VARIANCE> 39
 5.492176e+00 1.751357e+01 8.322571e+00 2.028477e+01 2.110437e+01 1.822581e+01 2.770235e+01 2.177379e+01 1.819457e+01 1.436117e+01 1.490075e+01 1.416482e+01 4.296309e-03 3.378369e-01 7.995235e-01 6.217727e-01 1.026375e+00 1.144356e+00 1.574872e+00 1.274451e+00 1.120858e+00 2.135783e+00 1.486447e+00 1.785039e+00 1.611075e+00 1.700666e-04 3.326781e-02 9.945767e-02 1.134691e-01 2.555797e-01 2.966986e-01 1.794720e-01 2.355726e-01 1.790313e-01 4.344686e-01 3.279479e-01 1.684483e-01 2.878415e-01 7.726085e-06
<GCONST> 5.981824e+01
<MIXTURE> 5 6.992945e-03
<MEAN> 39
 -6.122717e+00 3.564681e+00 -9.931418e+00 -5.826934e+00 -8.121147e+00 -1.012847e+01 -4.793555e+00 -7.642750e+00 1.303105e+00 5.477098e+00 1.186301e+01 2.425821e+01 9.500090e-01 -7.465958e-01 -2.335310e-01 -5.132615e-02 1.244906e-01 -9.362367e-01 -9.908819e-01 -1.063753e+00 -3.383817e-01 -8.413658e-02 -2.662262e-01 9.561087e-01 8.479615e-01 1.088683e-02 3.883469e-01 3.658547e-01 2.633515e-01 2.796816e-01 5.457873e-01 4.436979e-01 5.154917e-01 5.215969e-01 1.648002e-01 -1.953363e-01 -3.669269e-01 -6.090149e-01 -4.204184e-03
<VARIANCE> 39
 2.286016e+01 1.153134e+01 5.438189e+00 8.668538e+00 1.953067e+01 1.932990e+01 1.574381e+01 7.720877e+00 1.798198e+01 2.354504e+01 2.996855e+01 4.656387e+01 2.572602e-03 7.206098e-01 5.030172e-01 3.359569e-01 1.482605e+00 7.656059e-01 9.035307e-01 2.164185e+00 8.331701e-01 6.968974e-01 1.130179e+00 1.309410e+00 1.519918e+00 7.634100e-05 6.959929e-02 8.686955e-02 1.014101e-01 2.984490e-01 2.503951e-01 2.432043e-01 2.344567e-01 1.250040e-01 3.608981e-01 4.371737e-01 1.034942e-01 4.320467e-01 1.728581e-05
<GCONST> 5.778945e+01
<MIXTURE> 6 4.809506e-02
<MEAN> 39
 1.575823e+00 1.420881e+01 -1.715900e+00 -2.459033e+00 -4.917798e+00 -7.149362e+00 -8.950477e+00 5.278007e+00 -8.240735e+00 4.732402e+00 -3.686276e+00 1.606797e+00 7.983429e-01 -4.758835e-01 9.272370e-01 2.987565e-01 -9.809763e-02 1.962966e-02 -5.114691e-01 -5.186923e-01 -4.905763e-02 1.453407e-01 8.122627e-01 -6.554908e-01 -1.705689e-01 1.324046e-02 -2.812484e-02 -1.718415e-01 5.026466e-02 -3.608460e-02 -1.411720e-01 1.409261e-01 3.195237e-01 -1.621154e-02 2.301374e-01 -1.584807e-01 2.492076e-01 -9.823985e-02 -3.925067e-04
<VARIANCE> 39
 3.774387e+00 1.297724e+01 1.136921e+01 9.173767e+00 9.180380e+00 1.333674e+01 2.269066e+01 2.728979e+01 2.361098e+01 1.451440e+01 1.848823e+01 1.279376e+01 1.539712e-03 4.588172e-01 5.159042e-01 1.183306e+00 5.899602e-01 1.084254e+00 1.536756e+00 1.437009e+00 1.306358e+00 1.407599e+00 9.913285e-01 1.388097e+00 1.141475e+00 1.149762e-04 7.092600e-02 6.115606e-02 2.021252e-01 1.116477e-01 1.865259e-01 1.251310e-01 2.678582e-01 2.515917e-01 1.869397e-01 1.825713e-01 1.706414e-01 2.909961e-01 1.293134e-05
<GCONST> 5.401882e+01
<MIXTURE> 7 3.496493e-02
<MEAN> 39
 -8.112805e-01 1.563160e+01 6.247241e-01 -3.613239e+00 -5.043528e+00 -4.597468e+00 -9.256120e+00 9.721162e-01 -1.708344e+00 -3.439422e+00 5.663943e+00 -3.587053e+00 8.198530e-01 -4.410241e-01 3.996976e-01 -1.796697e-01 3.332079e-01 -4.973234e-02 9.347162e-02 -1.435693e-01 2.067092e-02 -2.497349e-01 -4.078456e-01 -1.004470e-02 -3.200887e-01 1.735347e-02 3.433492e-02 -1.468447e-01 5.482176e-02 -9.139580e-02 6.956346e-02 -3.839919e-02 5.529227e-02 -1.479325e-02 7.500863e-02 6.946591e-02 -8.993427e-02 1.325894e-01 -2.546725e-03
<VARIANCE> 39
 7.082235e+00 2.030214e+01 6.133322e+00 9.966218e+00 1.373444e+01 9.534405e+00 1.076069e+01 1.152579e+01 2.431010e+01 1.727438e+01 8.379223e+00 4.883110e+00 4.454388e-03 3.926440e-01 1.914708e-01 2.681321e-01 3.033655e-01 5.132992e-01 3.487774e-01 5.285184e-01 3.588918e-01 7.674014e-01 4.202938e-01 5.244162e-01 4.370080e-01 2.070338e-04 6.585682e-02 4.085441e-02 4.389561e-02 6.416981e-02 7.278755e-02 5.949460e-02 6.558577e-02 5.773763e-02 1.008196e-01 9.874799e-02 6.825175e-02 6.167936e-02 2.453011e-05
<GCONST> 3.172044e+01
<MIXTURE> 8 8.369292e-02
<MEAN> 39
 6.792485e-01 1.138032e+01 -2.983799e+00 -2.754648e+00 -5.537300e+00 -5.238591e+00 1.153042e+00 1.469361e-01 -1.352649e+00 9.390949e-02 -3.746514e+00 3.188360e+00 8.108544e-01 -9.907150e-01 -6.046031e-01 -8.244492e-01 -2.983036e-01 -5.021863e-01 -1.060409e+00 -1.343813e+00 -1.372124e+00 -1.668968e+00 -1.690076e+00 -1.451750e+00 -5.883712e-01 3.946496e-02 1.346936e-02 -1.535401e-01 1.871214e-01 2.574973e-01 3.093098e-01 1.314411e-01 8.623445e-03 7.771541e-02 2.441498e-01 2.361978e-01 3.620303e-01 1.259221e-01 -9.414423e-03
<VARIANCE> 39
 1.179825e+01 3.040858e+01 1.689544e+01 1.264213e+01 1.382769e+01 1.755325e+01 1.630581e+01 2.524387e+01 2.069727e+01 2.238488e+01 2.094807e+01 2.175400e+01 6.484965e-03 6.174411e-01 7.048530e-01 8.777714e-01 8.423376e-01 1.027901e+00 1.317823e+00 1.379101e+00 1.584953e+00 1.114105e+00 1.330778e+00 2.081171e+00 2.496734e+00 2.933895e-04 9.809892e-02 1.065001e-01 8.529846e-02 1.013883e-01 1.467132e-01 1.749985e-01 2.295940e-01 2.125931e-01 2.985949e-01 3.470195e-01 2.248824e-01 2.416389e-01 6.010644e-05
<GCONST> 6.462448e+01
<MIXTURE> 9 6.869652e-02
<MEAN> 39
 -3.295610e+00 1.132993e+01 -6.099250e+00 -4.256650e+00 -9.450890e+00 -1.031851e+01 -5.234808e+00 -4.932471e+00 -6.584246e+00 -4.704871e+00 -7.463325e+00 -1.014567e+00 8.524557e-01 -4.276616e-01 -4.192974e-01 -3.519227e-01 2.218554e-01 -2.929231e-01 -1.522226e-01 -8.532850e-01 -1.012949e+00 -7.582770e-01 -1.001881e+00 -8.782932e-01 -2.906746e-01 1.817267e-02 4.161562e-01 1.964462e-01 5.199218e-01 3.358196e-01 6.121509e-01 6.250057e-01 5.521364e-01 7.058640e-01 7.992207e-01 7.819663e-01 7.434711e-01 5.156638e-01 -4.913222e-03
<VARIANCE> 39
 1.164079e+01 3.190044e+01 1.561328e+01 1.601638e+01 1.392469e+01 2.059737e+01 3.422622e+01 1.987096e+01 2.709275e+01 1.784833e+01 2.794950e+01 3.857691e+01 7.503951e-03 3.267156e-01 4.563296e-01 5.514818e-01 1.299063e+00 9.188741e-01 9.495434e-01 1.377034e+00 1.362063e+00 1.178603e+00 1.417024e+00 2.360664e+00 2.450238e+00 1.566593e-04 5.239349e-02 1.299439e-01 1.261272e-01 2.351305e-01 1.616782e-01 2.858372e-01 2.160766e-01 2.215115e-01 1.447607e-01 2.021220e-01 3.183734e-01 3.613488e-01 4.864283e-05
<GCONST> 6.508488e+01
<MIXTURE> 10 3.496493e-02
<MEAN> 39
 -8.112805e-01 1.563160e+01 6.247241e-01 -3.613239e+00 -5.043528e+00 -4.597468e+00 -9.256120e+00 9.721162e-01 -1.708344e+00 -3.439422e+00 5.663943e+00 -3.587053e+00 8.198530e-01 -4.410241e-01 3.996976e-01 -1.796697e-01 3.332079e-01 -4.973234e-02 9.347162e-02 -1.435693e-01 2.067092e-02 -2.497349e-01 -4.078456e-01 -1.004470e-02 -3.200887e-01 1.735347e-02 3.433492e-02 -1.468447e-01 5.482176e-02 -9.139580e-02 6.956346e-02 -3.839919e-02 5.529227e-02 -1.479325e-02 7.500863e-02 6.946591e-02 -8.993427e-02 1.325894e-01 -2.546725e-03
<VARIANCE> 39
 7.082235e+00 2.030214e+01 6.133322e+00 9.966218e+00 1.373444e+01 9.534405e+00 1.076069e+01 1.152579e+01 2.431010e+01 1.727438e+01 8.379223e+00 4.883110e+00 4.454388e-03 3.926440e-01 1.914708e-01 2.681321e-01 3.033655e-01 5.132992e-01 3.487774e-01 5.285184e-01 3.588918e-01 7.674014e-01 4.202938e-01 5.244162e-01 4.370080e-01 2.070338e-04 6.585682e-02 4.085441e-02 4.389561e-02 6.416981e-02 7.278755e-02 5.949460e-02 6.558577e-02 5.773763e-02 1.008196e-01 9.874799e-02 6.825175e-02 6.167936e-02 2.453011e-05
<GCONST> 3.172044e+01
<MIXTURE> 11 3.496493e-02
<MEAN> 39
 -8.112805e-01 1.563160e+01 6.247241e-01 -3.613239e+00 -5.043528e+00 -4.597468e+00 -9.256120e+00 9.721162e-01 -1.708344e+00 -3.439422e+00 5.663943e+00 -3.587053e+00 8.198530e-01 -4.410241e-01 3.996976e-01 -1.796697e-01 3.332079e-01 -4.973234e-02 9.347162e-02 -1.435693e-01 2.067092e-02 -2.497349e-01 -4.078456e-01 -1.004470e-02 -3.200887e-01 1.735347e-02 3.433492e-02 -1.468447e-01 5.482176e-02 -9.139580e-02 6.956346e-02 -3.839919e-02 5.529227e-02 -1.479325e-02 7.500863e-02 6.946591e-02 -8.993427e-02 1.325894e-01 -2.546725e-03
<VARIANCE> 39
 7.082235e+00 2.030214e+01 6.133322e+00 9.966218e+00 1.373444e+01 9.534405e+00 1.076069e+01 1.152579e+01 2.431010e+01 1.727438e+01 8.379223e+00 4.883110e+00 4.454388e-03 3.926440e-01 1.914708e-01 2.681321e-01 3.033655e-01 5.132992e-01 3.487774e-01 5.285184e-01 3.588918e-01 7.674014e-01 4.202938e-01 5.244162e-01 4.370080e-01 2.070338e-04 6.585682e-02 4.085441e-02 4.389561e-02 6.416981e-02 7.278755e-02 5.949460e-02 6.558577e-02 5.773763e-02 1.008196e-01 9.874799e-02 6.825175e-02 6.167936e-02 2.453011e-05
<GCONST> 3.172044e+01
<MIXTURE> 12 2.532323e-02
<MEAN> 39
 1.070151e+00 1.200918e+01 -3.459316e+00 -5.840176e-01 -2.870355e+00 -2.720716e+00 7.328202e-01 1.581105e+00 -1.128188e-01 1.970402e+00 -2.766464e+00 5.399435e+00 8.263289e-01 -9.839128e-01 -4.023935e-01 -6.811503e-01 -7.880864e-02 -8.523626e-01 -1.080803e+00 -1.509293e+00 -1.516394e+00 -9.069133e-01 -8.652928e-01 -8.495548e-01 -5.705920e-01 3.214214e-02 -6.110317e-02 -2.947029e-01 -1.186635e-01 -1.677061e-01 -2.866713e-01 -2.767565e-01 -2.843367e-01 -3.866257e-01 -2.774631e-01 -7.157081e-02 -3.866001e-02 -1.495356e-01 -5.097246e-03
<VARIANCE> 39
 1.591018e+01 3.506263e+01 1.787675e+01 1.336504e+01 5.900832e+00 6.069841e+00 1.478701e+01 2.841807e+01 1.632940e+01 3.235424e+01 3.196225e+01 2.213017e+01 6.117040e-03 4.928253e-01 3.493512e-01 4.363661e-01 5.167456e-01 9.771692e-01 5.584637e-01 1.046898e+00 8.906150e-01 8.592573e-01 1.123673e+00 1.501974e+00 7.938268e-01 3.107333e-04 8.564776e-02 5.405318e-02 1.129427e-01 9.519725e-02 1.466617e-01 1.279314e-01 2.032322e-01 1.615030e-01 1.745694e-01 1.650343e-01 2.680486e-01 1.866229e-01 4.024920e-05
<GCONST> 5.500774e+01
<MIXTURE> 13 1.410933e-01
<MEAN> 39
 -5.598263e-01 1.598498e+01 5.166694e-01 -1.769957e-01 -5.280984e+00 -4.495442e+00 -1.152868e+01 1.513462e+00 -1.507159e+00 -2.561861e+00 4.062116e+00 -4.640275e+00 7.786638e-01 -3.469194e-01 9.442441e-01 -2.020473e-01 3.179434e-01 -6.542038e-01 2.743481e-01 -9.876597e-01 6.000023e-02 -7.245566e-01 -4.320551e-01 7.808428e-02 -5.202025e-01 1.818727e-02 5.260974e-02 -4.411876e-01 1.689670e-01 -3.740358e-01 4.254911e-02 5.086961e-02 3.682808e-01 -3.609433e-02 3.632450e-02 1.606855e-01 -1.997309e-01 2.675942e-01 1.395696e-04
<VARIANCE> 39
 9.625582e+00 2.422352e+01 1.764404e+01 1.864814e+01 2.160063e+01 2.773499e+01 2.761992e+01 2.611892e+01 2.606710e+01 3.387192e+01 2.514827e+01 1.508483e+01 7.107951e-03 5.859327e-01 9.221942e-01 7.917892e-01 1.656059e+00 1.089803e+00 1.517079e+00 1.272920e+00 2.024566e+00 1.562380e+00 1.626532e+00 1.171441e+00 1.341495e+00 3.155145e-04 7.513327e-02 1.577538e-01 1.922664e-01 2.454421e-01 2.227817e-01 2.706640e-01 2.246332e-01 3.623665e-01 3.186109e-01 3.913763e-01 2.750300e-01 2.368264e-01 2.589887e-05
<GCONST> 6.992507e+01
<MIXTURE> 14 2.532323e-02
<MEAN> 39
 1.070151e+00 1.200918e+01 -3.459316e+00 -5.840176e-01 -2.870355e+00 -2.720716e+00 7.328202e-01 1.581105e+00 -1.128188e-01 1.970402e+00 -2.766464e+00 5.399435e+00 8.263289e-01 -9.839128e-01 -4.023935e-01 -6.811503e-01 -7.880864e-02 -8.523626e-01 -1.080803e+00 -1.509293e+00 -1.516394e+00 -9.069133e-01 -8.652928e-01 -8.495548e-01 -5.705920e-01 3.214214e-02 -6.110317e-02 -2.947029e-01 -1.186635e-01 -1.677061e-01 -2.866713e-01 -2.767565e-01 -2.843367e-01 -3.866257e-01 -2.774631e-01 -7.157081e-02 -3.866001e-02 -1.495356e-01 -5.097246e-03
<VARIANCE> 39
 1.591018e+01 3.506263e+01 1.787675e+01 1.336504e+01 5.900832e+00 6.069841e+00 1.478701e+01 2.841807e+01 1.632940e+01 3.235424e+01 3.196225e+01 2.213017e+01 6.117040e-03 4.928253e-01 3.493512e-01 4.363661e-01 5.167456e-01 9.771692e-01 5.584637e-01 1.046898e+00 8.906150e-01 8.592573e-01 1.123673e+00 1.501974e+00 7.938268e-01 3.107333e-04 8.564776e-02 5.405318e-02 1.129427e-01 9.519725e-02 1.466617e-01 1.279314e-01 2.032322e-01 1.615030e-01 1.745694e-01 1.650343e-01 2.680486e-01 1.866229e-01 4.024920e-05
<GCONST> 5.500774e+01
<MIXTURE> 15 5.835439e-02
<MEAN> 39
 3.518407e+00 1.733926e+01 -1.863072e+00 6.754186e-01 -6.128926e+00 -5.312684e+00 2.369629e+00 2.739882e+00 1.067710e+00 4.416101e+00 -8.038887e-01 7.516471e+00 7.183822e-01 -3.603379e-01 5.233863e-02 -7.680821e-01 -5.995592e-01 -8.301184e-01 -4.409334e-01 -9.824902e-01 -8.257929e-01 -1.233546e+00 -1.764207e+00 -1.675925e+00 -9.046703e-01 3.777279e-02 -3.817655e-01 -6.268153e-01 -2.137327e-01 -1.762358e-01 1.090251e-01 -1.828071e-01 -2.711958e-01 -2.931292e-01 -2.076796e-01 -5.055223e-01 -3.547053e-01 -5.151203e-01 1.358932e-03
<VARIANCE> 39
 7.524106e+00 6.433260e+00 1.372724e+01 1.508197e+01 1.003056e+01 1.391357e+01 1.782800e+01 2.312472e+01 1.793425e+01 2.414615e+01 1.855129e+01 1.928633e+01 6.713268e-03 5.926096e-01 6.173289e-01 9.414544e-01 1.096015e+00 1.118629e+00 1.520932e+00 1.213183e+00 8.405260e-01 1.744195e+00 2.024187e+00 2.026919e+00 2.184162e+00 2.768287e-04 7.500432e-02 1.728684e-01 1.305357e-01 1.772631e-01 1.782247e-01 1.880181e-01 2.437332e-01 3.331510e-01 2.610180e-01 2.189395e-01 4.140346e-01 4.360468e-01 8.361691e-05
<GCONST> 6.494917e+01
<MIXTURE> 16 5.951673e-02
<MEAN> 39
 -1.608589e+00 1.336671e+01 -5.309978e+00 -6.971238e-01 -8.143595e+00 -8.644827e+00 -4.039597e+00 -2.983856e+00 -4.610049e+00 -1.408631e+00 -7.349030e+00 4.844047e+00 8.597097e-01 -6.243176e-01 -7.336586e-01 -9.276614e-01 -5.792122e-01 -1.329682e+00 -1.559597e+00 -1.611371e+00 -1.595974e+00 -1.137808e+00 -9.403214e-01 -7.810104e-01 -4.740881e-01 2.171746e-02 2.467913e-01 6.331138e-02 1.966316e-01 -4.218179e-03 2.041520e-01 2.803058e-01 3.489474e-01 2.459314e-01 2.378191e-01 1.476527e-01 2.336548e-01 5.152031e-02 -6.128137e-03
<VARIANCE> 39
 1.183825e+01 1.891748e+01 1.147281e+01 1.351599e+01 9.639915e+00 9.307454e+00 1.370826e+01 2.200412e+01 1.188764e+01 1.957501e+01 9.277380e+00 1.450867e+01 4.814395e-03 2.703181e-01 3.268632e-01 5.355574e-01 9.766362e-01 6.625038e-01 9.066924e-01 6.949781e-01 1.233496e+00 1.059852e+00 1.327942e+00 9.523576e-01 1.367615e+00 8.443408e-05 5.542881e-02 7.605091e-02 7.479571e-02 1.056187e-01 1.247563e-01 1.462367e-01 1.936469e-01 1.892896e-01 1.228295e-01 1.553987e-01 1.660113e-01 2.488566e-01 2.015082e-05
<GCONST> 4.926508e+01
<MIXTURE> 17 3.528933e-02
<MEAN> 39
 -2.820474e+00 1.055032e+01 -7.235229e+00 -3.245454e+00 -7.368734e+00 -6.151904e+00 -2.585396e-01 -2.160810e+00 1.138612e+00 1.025390e+00 5.567165e+00 1.229767e+01 8.470844e-01 -5.461914e-01 -7.830639e-02 -4.960472e-02 3.697007e-01 1.460327e-01 1.082037e-01 -9.314523e-01 -4.846357e-01 2.328344e-01 1.370333e+00 2.890525e+00 3.044925e+00 3.182951e-02 5.095464e-01 1.581242e-01 4.116276e-01 1.753923e-01 2.491889e-01 2.174807e-01 2.998355e-01 4.099983e-01 2.354386e-01 1.151363e-01 -3.678499e-01 -8.898777e-01 -1.320519e-02
<VARIANCE> 39
 1.275756e+01 2.644021e+01 1.690025e+01 1.405558e+01 2.465083e+01 1.458391e+01 2.575938e+01 1.752130e+01 2.425334e+01 2.359296e+01 2.595135e+01 2.557627e+01 4.025326e-03 5.319092e-01 3.929678e-01 9.456777e-01 6.885360e-01 1.251159e+00 1.064755e+00 1.640484e+00 8.543735e-01 1.814411e+00 3.491255e+00 2.734414e+00 2.378736e+00 1.806820e-04 7.160912e-02 6.376772e-02 1.330995e-01 1.077560e-01 2.037709e-01 1.611054e-01 2.765618e-01 2.628618e-01 2.111386e-01 3.641652e-01 3.945622e-01 4.268035e-01 8.164257e-05
<GCONST> 6.659612e+01
<MIXTURE> 18 4.583113e-02
<MEAN> 39
 -1.395318e+00 1.252669e+01 -4.086164e+00 1.322103e+00 -6.867000e+00 -3.639433e+00 3.407530e-02 -3.611311e+00 -2.294350e+00 -7.247787e+00 -3.974455e+00 6.863703e+00 8.055372e-01 -6.751273e-02 2.084416e-01 6.395406e-01 5.114990e-01 -3.169169e-02 -2.806555e-01 -7.284337e-01 2.717812e-01 -2.218880e-02 -3.206805e-01 -3.402082e-01 7.310436e-01 2.596993e-02 1.378023e-01 -5.871934e-02 5.642787e-02 -2.477157e-01 8.627067e-02 -2.009726e-01 4.045119e-02 5.898348e-02 4.083778e-01 4.694918e-01 1.341067e-01 -3.716594e-01 -2.747155e-03
<VARIANCE> 39
 1.316733e+01 3.378758e+01 2.439265e+01 1.365366e+01 1.277309e+01 4.052837e+01 1.268812e+01 2.647609e+01 1.228956e+01 1.276082e+01 1.386507e+01 1.591181e+01 7.762277e-03 5.006843e-01 4.282843e-01 3.042746e-01 1.295177e+00 9.614950e-01 1.632182e+00 9.208754e-01 1.551432e+00 2.422712e+00 1.321588e+00 9.261218e-01 1.327775e+00 2.159594e-04 9.118479e-02 7.918443e-02 1.484764e-01 2.373367e-01 1.693616e-01 3.375610e-01 2.048828e-01 3.594962e-01 3.483950e-01 2.258674e-01 3.106902e-01 2.468858e-01 4.142476e-05
<GCONST> 6.356100e+01
<MIXTURE> 19 4.503770e-02
<MEAN> 39
 5.353351e-01 1.042576e+01 -2.261902e+00 -2.473665e+00 -7.530150e+00 -6.563447e+00 -5.370170e+00 -3.280026e+00 -4.138752e+00 -2.036859e+00 -2.426881e+00 -2.006276e+00 8.364839e-01 1.249044e-01 1.117806e+00 1.212544e-01 6.934435e-01 -5.656891e-01 2.165110e-01 1.437850e-01 -1.804853e-01 -3.436742e-01 -1.607894e-01 3.084053e-01 6.698620e-01 2.858762e-03 8.978240e-03 -5.738441e-02 -2.872561e-02 -1.164894e-01 4.089788e-01 1.224161e-01 3.607335e-02 3.344355e-01 3.972276e-01 1.286915e-01 1.509515e-01 3.926461e-02 9.633361e-04
<VARIANCE> 39
 1.036783e+01 2.094137e+01 2.245863e+01 2.316836e+01 2.717896e+01 2.929290e+01 3.405201e+01 2.570843e+01 2.413745e+01 2.719551e+01 5.709330e+01 3.124267e+01 7.653870e-03 2.541545e-01 3.778479e-01 1.549443e+00 1.009642e+00 1.586245e+00 1.399262e+00 1.276522e+00 1.835704e+00 1.473164e+00 2.478951e+00 2.177595e+00 1.240581e+00 9.103401e-05 3.365402e-02 8.351461e-02 1.605047e-01 1.636374e-01 2.447743e-01 3.033946e-01 3.195978e-01 3.869207e-01 3.164892e-01 3.119510e-01 3.251154e-01 2.294927e-01 9.356210e-06
<GCONST> 6.791084e+01
<MIXTURE> 20 8.127443e-02
<MEAN> 39
 1.083337e+00 1.226040e+01 -3.070454e-01 -3.270422e+00 -7.060824e+00 -3.202211e+00 -7.985212e+00 9.581545e-01 -1.346691e+00 -3.406672e+00 3.100712e+00 -3.807275e+00 7.707773e-01 -9.420267e-01 1.333187e+00 -3.953391e-01 -7.423410e-01 -4.301182e-01 -1.141128e-01 -9.209954e-01 -7.027092e-02 1.438918e-02 -6.189455e-01 8.155070e-01 -6.799560e-01 6.367373e-02 -3.271827e-01 -1.001126e+00 1.333437e-01 4.035178e-01 4.979275e-01 3.249375e-01 6.740024e-01 -1.074101e-01 2.556741e-01 2.241605e-01 -2.076905e-01 4.578882e-01 -3.443063e-02
<VARIANCE> 39
 9.691060e+00 4.888290e+01 1.908915e+01 1.998042e+01 2.652709e+01 3.066459e+01 3.109285e+01 2.473285e+01 2.806031e+01 2.094904e+01 2.074132e+01 2.049385e+01 9.565383e-03 8.234293e-01 2.198874e+00 1.425787e+00 1.936178e+00 2.377403e+00 2.057477e+00 2.089014e+00 3.591506e+00 2.104640e+00 1.870949e+00 1.878291e+00 1.573951e+00 9.081250e-04 1.776725e-01 3.563479e-01 3.218801e-01 3.281498e-01 3.753346e-01 3.771801e-01 4.997719e-01 4.159136e-01 3.046532e-01 2.409392e-01 3.133582e-01 3.731284e-01 4.241311e-04
<GCONST> 8.451261e+01
<MIXTURE> 21 4.503770e-02
<MEAN> 39
 5.353351e-01 1.042576e+01 -2.261902e+00 -2.473665e+00 -7.530150e+00 -6.563447e+00 -5.370170e+00 -3.280026e+00 -4.138752e+00 -2.036859e+00 -2.426881e+00 -2.006276e+00 8.364839e-01 1.249044e-01 1.117806e+00 1.212544e-01 6.934435e-01 -5.656891e-01 2.165110e-01 1.437850e-01 -1.804853e-01 -3.436742e-01 -1.607894e-01 3.084053e-01 6.698620e-01 2.858762e-03 8.978240e-03 -5.738441e-02 -2.872561e-02 -1.164894e-01 4.089788e-01 1.224161e-01 3.607335e-02 3.344355e-01 3.972276e-01 1.286915e-01 1.509515e-01 3.926461e-02 9.633361e-04
<VARIANCE> 39
 1.036783e+01 2.094137e+01 2.245863e+01 2.316836e+01 2.717896e+01 2.929290e+01 3.405201e+01 2.570843e+01 2.413745e+01 2.719551e+01 5.709330e+01 3.124267e+01 7.653870e-03 2.541545e-01 3.778479e-01 1.549443e+00 1.009642e+00 1.586245e+00 1.399262e+00 1.276522e+00 1.835704e+00 1.473164e+00 2.478951e+00 2.177595e+00 1.240581e+00 9.103401e-05 3.365402e-02 8.351461e-02 1.605047e-01 1.636374e-01 2.447743e-01 3.033946e-01 3.195978e-01 3.869207e-01 3.164892e-01 3.119510e-01 3.251154e-01 2.294927e-01 9.356210e-06
<GCONST> 6.791084e+01
<MIXTURE> 22 6.063611e-02
<MEAN> 39
 -1.589346e+00 9.428972e+00 -4.161670e+00 -3.286577e+00 -5.877401e+00 -5.430265e+00 -1.964087e+00 3.908894e-01 -1.848969e+00 6.979133e-01 -2.343326e+00 2.403406e+00 8.702738e-01 -1.109375e+00 -1.268054e-01 -2.632946e-01 4.212192e-01 8.829050e-02 -2.482741e-01 -8.669090e-01 -1.327723e+00 -1.582695e+00 -1.229863e+00 -1.226493e+00 -1.304399e-01 4.647780e-02 3.571622e-02 -5.858592e-01 5.468269e-01 6.971222e-01 7.695399e-01 8.616946e-01 3.103333e-01 4.360617e-01 5.188919e-01 3.826601e-01 5.303077e-01 8.958705e-02 -3.988029e-02
<VARIANCE> 39
 1.059445e+01 5.164590e+01 1.768866e+01 1.393500e+01 2.287900e+01 2.584290e+01 3.304230e+01 1.682987e+01 2.595011e+01 2.535806e+01 2.924260e+01 4.785366e+01 4.080095e-03 4.983856e-01 5.754132e-01 5.204875e-01 9.324615e-01 9.734727e-01 1.013350e+00 1.098190e+00 1.877245e+00 1.529932e+00 1.693205e+00 4.071900e+00 6.167058e+00 1.715664e-04 1.283966e-01 2.725566e-01 2.124881e-01 1.947363e-01 2.991581e-01 3.212571e-01 3.544005e-01 2.869239e-01 2.994545e-01 3.888855e-01 3.804216e-01 6.285537e-01 1.783714e-04
<GCONST> 7.528801e+01
<STATE> 4
<NUMMIXES> 22
<MIXTURE> 1 5.544296e-02
<MEAN> 39
 -8.821887e-01 1.077891e+01 -4.671168e+00 -4.489795e+00 -4.437015e+00 -4.143081e+00 -4.637640e+00 -1.573224e+00 1.827510e+00 1.271463e+00 5.367638e+00 2.007762e+00 8.791116e-01 -4.834634e-01 2.765374e-01 2.901305e-01 3.508327e-01 4.607700e-02 6.495123e-02 3.860533e-01 -1.751858e-01 -9.269501e-02 2.178936e-02 4.551145e-01 1.866953e-01 2.744934e-02 1.019439e-01 -1.284398e-01 2.109432e-01 3.732511e-01 1.092857e-01 1.095375e-01 3.486051e-01 2.731854e-01 1.451210e-01 6.472995e-02 -2.029306e-01 7.854156e-02 -1.242649e-02
<VARIANCE> 39
 1.675501e+01 4.134171e+01 3.766898e+01 1.791211e+01 3.327848e+01 3.210493e+01 3.825784e+01 5.101517e+01 7.676430e+01 7.960245e+01 5.347754e+01 9.736382e+01 9.928254e-03 8.862189e-01 1.065085e+00 1.327427e+00 1.293782e+00 2.063511e+00 1.743285e+00 1.967088e+00 3.734868e+00 3.243150e+00 2.488686e+00 2.728944e+00 3.922374e+00 4.567163e-04 1.138992e-01 2.008656e-01 2.674393e-01 2.628880e-01 3.733667e-01 2.685626e-01 3.175466e-01 5.031738e-01 5.806070e-01 4.165373e-01 5.782855e-01 6.157331e-01 1.850692e-04
<GCONST> 9.085746e+01
<MIXTURE> 2 8.485934e-02
<MEAN> 39
 -4.801933e-01 1.587102e+01 1.183932e+00 -1.741632e-01 -6.635339e+00 -7.860288e+00 -9.596576e+00 -1.121074e+00 -9.666577e-01 -1.899033e+00 2.384289e+00 -3.364364e+00 8.377357e-01 7.365506e-02 6.926348e-01 -1.046965e-01 2.087997e-01 -1.025806e-01 1.185200e-01 -1.514492e-01 6.643726e-02 2.444283e-01 1.546449e-02 -1.246506e-01 -2.225807e-01 2.277329e-03 7.923659e-03 -2.216587e-01 -1.170871e-01 -3.319975e-01 1.475875e-01 1.106013e-01 1.263767e-01 -9.804440e-02 -6.283928e-02 -9.081881e-03 -6.152949e-02 9.540138e-02 6.760426e-06
<VARIANCE> 39
 1.272734e+01 2.247138e+01 3.020548e+01 1.539259e+01 2.490523e+01 3.236784e+01 3.943242e+01 2.158746e+01 2.682140e+01 4.413138e+01 4.330814e+01 3.158413e+01 4.198706e-03 1.303957e-01 4.040619e-01 5.870477e-01 8.069387e-01 6.238655e-01 1.522237e+00 1.777712e+00 1.035970e+00 9.658485e-01 1.526654e+00 8.615008e-01 1.074806e+00 4.692285e-05 2.343593e-02 5.795536e-02 1.195514e-01 1.328418e-01 1.550469e-01 2.255926e-01 2.523688e-01 2.040259e-01 2.321960e-01 2.569584e-01 1.892023e-01 1.827127e-01 6.386397e-06
<GCONST> 5.774261e+01
<MIXTURE> 3 4.925389e-02
<MEAN> 39
 -1.632076e+00 1.176934e+01 -6.158408e+00 -2.585012e+00 -9.100139e+00 -9.021171e+00 -5.295216e+00 -4.870311e+00 -6.399788e+00 -4.138910e+00 -7.643873e+00 1.151809e+00 8.742722e-01 1.668201e-01 1.050383e-01 1.632899e-01 4.525228e-01 1.706976e-01 2.147097e-01 -5.238577e-03 -5.437692e-02 1.451870e-01 1.351865e-02 1.749785e-01 1.328683e-01 1.245438e-02 1.951749e-01 1.990287e-01 3.002291e-01 2.016723e-01 4.327145e-01 3.835466e-01 4.766599e-01 5.035573e-01 4.649504e-01 4.181171e-01 4.664475e-01 2.239389e-01 -4.398622e-03
<VARIANCE> 39
 1.336116e+01 2.977738e+01 1.248303e+01 1.784974e+01 1.367884e+01 1.682365e+01 1.907527e+01 2.446371e+01 2.077002e+01 2.108462e+01 2.357959e+01 3.059837e+01 6.504785e-03 2.634623e-01 3.515869e-01 5.042034e-01 5.444193e-01 1.006850e+00 8.633664e-01 1.255029e+00 1.145092e+00 9.275401e-01 1.058554e+00 8.167630e-01 1.107276e+00 8.572968e-05 6.042228e-02 6.829258e-02 7.898606e-02 1.095334e-01 1.084889e-01 1.480932e-01 1.828994e-01 1.565768e-01 1.570293e-01 1.969300e-01 2.628871e-01 2.131017e-01 1.528078e-05
<GCONST> 5.397794e+01
<MIXTURE> 4 3.076708e-02
<MEAN> 39
 3.735225e-01 7.989715e+00 -1.414407e+00 -2.485276e+00 -3.251960e+00 -3.687505e+00 -6.818412e+00 3.519082e+00 -9.511415e+00 3.922248e+00 -3.535371e+00 5.502210e+00 9.388065e-01 1.089517e-01 7.837660e-03 3.272983e-02 3.010804e-02 9.850802e-02 -2.889473e-02 1.150642e-01 -9.868404e-02 1.696381e-03 -2.017025e-02 -7.030568e-02 4.094455e-02 -1.020107e-03 2.240604e-03 -1.328188e-02 2.846513e-03 -4.263308e-03 6.329174e-03 -2.405950e-02 2.086861e-02 3.327813e-02 5.508856e-02 -5.446388e-02 -6.600948e-03 -8.462239e-02 -1.105692e-03
<VARIANCE> 39
 7.116039e+00 1.415364e+01 1.245455e+00 4.882193e+00 3.283710e+00 5.177004e+00 3.904959e+00 4.213910e+00 2.291571e+01 6.305747e+00 4.343716e+00 8.983172e+00 2.892716e-03 2.715780e-02 4.570755e-02 8.018652e-02 1.228476e-01 1.029097e-01 8.650745e-02 1.747357e-01 1.944453e-01 2.203908e-01 2.678810e-01 1.798522e-01 1.810416e-01 3.754082e-05 4.182760e-03 1.107022e-02 1.321313e-02 2.594152e-02 2.478879e-02 1.460746e-02 2.586190e-02 3.532128e-02 4.147013e-02 4.456624e-02 3.417420e-02 4.022738e-02 3.730628e-06
<GCONST> -7.601922e+00
<MIXTURE> 5 4.925389e-02
<MEAN> 39
 -1.632076e+00 1.176934e+01 -6.158408e+00 -2.585012e+00 -9.100139e+00 -9.021171e+00 -5.295216e+00 -4.870311e+00 -6.399788e+00 -4.138910e+00 -7.643873e+00 1.151809e+00 8.742722e-01 1.668201e-01 1.050383e-01 1.632899e-01 4.525228e-01 1.706976e-01 2.147097e-01 -5.238577e-03 -5.437692e-02 1.451870e-01 1.351865e-02 1.749785e-01 1.328683e-01 1.245438e-02 1.951749e-01 1.990287e-01 3.002291e-01 2.016723e-01 4.327145e-01 3.835466e-01 4.766599e-01 5.035573e-01 4.649504e-01 4.181171e-01 4.664475e-01 2.239389e-01 -4.398622e-03
<VARIANCE> 39
 1.336116e+01 2.977738e+01 1.248303e+01 1.784974e+01 1.367884e+01 1.682365e+01 1.907527e+01 2.446371e+01 2.077002e+01 2.108462e+01 2.357959e+01 3.059837e+01 6.504785e-03 2.634623e-01 3.515869e-01 5.042034e-01 5.444193e-01 1.006850e+00 8.633664e-01 1.255029e+00 1.145092e+00 9.275401e-01 1.058554e+00 8.167630e-01 1.107276e+00 8.572968e-05 6.042228e-02 6.829258e-02 7.898606e-02 1.095334e-01 1.084889e-01 1.480932e-01 1.828994e-01 1.565768e-01 1.570293e-01 1.969300e-01 2.628871e-01 2.131017e-01 1.528078e-05
<GCONST> 5.397794e+01
<MIXTURE> 6 3.985284e-02
<MEAN> 39
 -7.484807e-01 1.631320e+01 8.441589e-01 -1.826564e+00 -6.049164e+00 -8.656775e+00 -8.966851e+00 5.130189e+00 -4.973872e+00 6.528367e+00 -4.266531e+00 1.511092e-01 8.282301e-01 1.838077e-02 2.070318e-01 -1.614080e-01 -1.367564e-01 2.317535e-01 2.105798e-02 2.188458e-01 -3.615364e-01 2.788068e-01 -2.393790e-01 1.113650e-01 2.045851e-01 1.933567e-03 1.080195e-03 -5.958420e-02 -1.224377e-02 3.218840e-03 3.433573e-02 -1.308218e-02 1.271688e-02 -4.536962e-02 -5.816346e-03 -1.054415e-01 1.299378e-01 -1.671881e-02 -5.539185e-04
<VARIANCE> 39
 3.021762e+00 2.013744e+01 5.781733e+00 6.293242e+00 5.699034e+00 9.678588e+00 1.179108e+01 2.250321e+01 6.155269e+00 1.519589e+01 1.919839e+01 1.421702e+01 1.355375e-03 2.957056e-02 1.298774e-01 1.241161e-01 1.507570e-01 2.252273e-01 3.388168e-01 2.331105e-01 3.123768e-01 3.414878e-01 3.392515e-01 4.890214e-01 7.481180e-01 3.754082e-05 4.513205e-03 2.667547e-02 3.460523e-02 2.437835e-02 4.224409e-02 7.047383e-02 6.372359e-02 7.613684e-02 6.064126e-02 6.327679e-02 7.321491e-02 1.451082e-01 3.730628e-06
<GCONST> 1.457598e+01
<MIXTURE> 7 2.177644e-02
<MEAN> 39
 -9.417683e+00 9.447339e+00 5.038408e+00 -2.083416e-02 -7.486874e+00 -2.521908e+00 -6.143790e+00 2.088370e-01 2.612347e+00 -1.042593e+01 2.377344e+00 -1.201439e+00 9.807368e-01 -6.872962e-02 1.026592e-01 -1.198577e-01 1.084412e-01 1.297418e-02 -1.356000e-01 -1.416714e-01 6.691191e-02 -9.820812e-02 1.851247e-01 2.919658e-02 -2.621517e-02 -1.357230e-03 5.521161e-02 -2.180650e-02 2.485881e-02 -1.450739e-02 5.629615e-02 -3.566408e-03 5.066308e-02 -5.027548e-03 -4.563657e-02 6.617446e-02 -4.425454e-02 4.360676e-02 -2.100411e-03
<VARIANCE> 39
 2.828665e+00 5.541600e+00 7.016646e-01 8.186099e+00 8.671194e-01 2.813430e+00 1.002633e+01 2.967621e+01 2.801445e+00 4.243823e+00 5.686351e+00 1.391184e+01 8.178985e-04 1.325851e-01 1.300532e-01 1.124032e-01 3.262999e-02 1.895213e-01 1.122520e-01 1.817931e-01 2.522208e-01 2.712694e-01 1.379300e-01 1.016965e-01 2.786914e-01 4.867281e-05 2.213151e-02 2.902452e-02 2.385590e-02 7.213993e-03 2.144523e-02 2.109149e-02 1.845048e-02 3.057087e-02 5.608079e-02 3.405075e-02 1.309565e-02 5.980115e-02 3.730628e-06
<GCONST> -7.989473e+00
<MIXTURE> 8 3.327237e-02
<MEAN> 39
 -2.347299e+00 1.009931e+01 -3.082278e+00 -1.117575e+00 -5.387986e+00 -4.229532e+00 -1.317084e+00 -2.064062e+00 1.236969e+00 7.816908e-01 4.995347e+00 1.143871e+01 9.173617e-01 8.443206e-03 -1.129224e-01 -1.168933e-01 7.805373e-02 2.212120e-02 -2.606374e-01 -1.835332e-01 4.784502e-02 8.718315e-02 -1.319676e-02 2.259093e-01 4.172066e-01 7.279024e-03 -3.517745e-02 -3.451181e-02 -8.402707e-02 -4.527260e-02 -6.611254e-02 -5.375333e-02 -6.462879e-02 9.181338e-03 -3.897040e-02 4.060414e-03 -2.150204e-01 -2.717277e-01 -2.909420e-03
<VARIANCE> 39
 1.175016e+01 1.923270e+01 1.724335e+01 1.539920e+01 2.079725e+01 3.167442e+01 1.179986e+01 8.917087e+00 2.467146e+01 4.381066e+01 2.645591e+01 5.091095e+01 4.600653e-03 1.399897e-01 2.039251e-01 1.905892e-01 1.235780e-01 4.242450e-01 3.556205e-01 2.053596e-01 3.061290e-01 3.031153e-01 3.782993e-01 7.954960e-01 6.543205e-01 4.084308e-05 3.598538e-02 2.269809e-02 4.577081e-02 4.088029e-02 8.240362e-02 8.253774e-02 5.845560e-02 8.918224e-02 1.549469e-01 1.091744e-01 1.254649e-01 1.068010e-01 3.730628e-06
<GCONST> 3.321869e+01
<MIXTURE> 9 5.425292e-02
<MEAN> 39
 -1.396638e+00 1.118769e+01 -2.908071e+00 -4.464561e-01 -3.600402e+00 -4.708529e+00 -2.155852e+00 -3.172597e+00 -1.856433e+00 1.403218e-01 -5.628972e-01 6.108436e+00 8.872100e-01 3.247619e-01 6.091359e-01 5.314134e-01 9.465849e-01 7.904088e-01 5.469390e-01 2.895008e-01 4.737764e-01 5.892636e-01 6.927646e-01 9.892837e-01 9.882798e-01 1.230974e-02 4.707509e-02 -6.660622e-02 -7.001870e-02 -1.115540e-01 -9.392038e-02 -1.389263e-01 3.190486e-02 1.227094e-01 2.728689e-02 5.252591e-02 -1.865038e-02 -2.636379e-01 -3.687425e-03
<VARIANCE> 39
 1.027474e+01 2.933898e+01 1.045324e+01 1.012814e+01 2.117905e+01 3.685359e+01 1.961401e+01 2.225237e+01 1.523032e+01 1.076020e+01 6.421622e+01 4.411945e+01 6.588267e-03 2.793093e-01 3.040233e-01 5.016835e-01 3.989916e-01 5.910932e-01 1.223408e+00 1.155420e+00 5.393399e-01 7.133038e-01 8.678926e-01 1.351510e+00 1.342994e+00 7.336906e-05 3.119909e-02 4.709092e-02 6.601909e-02 8.418556e-02 1.251162e-01 1.343537e-01 1.240312e-01 1.528282e-01 1.212531e-01 8.109000e-02 2.956170e-01 2.051190e-01 1.615914e-05
<GCONST> 5.031235e+01
<MIXTURE> 10 7.984221e-02
<MEAN> 39
 -1.224108e+00 1.786310e+01 -3.006470e-01 -1.169969e+00 -2.962977e+00 -4.150715e+00 -1.047595e+01 2.092103e+00 -2.498444e+00 -1.997378e+00 4.248667e+00 -3.753748e+00 8.051267e-01 -5.250476e-02 4.445253e-02 -1.112793e-01 -1.711946e-01 1.228720e-01 -6.160465e-02 8.338359e-02 -2.181130e-01 -2.396251e-02 -8.884782e-02 -6.676510e-03 1.235702e-01 9.299300e-04 1.472265e-02 -1.472308e-02 -3.115396e-03 -3.491924e-02 -1.205693e-02 7.946325e-03 6.681122e-03 2.083091e-02 8.084797e-03 3.172566e-02 3.798128e-03 -5.990432e-03 -1.159030e-03
<VARIANCE> 39
 2.014923e+00 7.718759e+00 3.830413e+00 6.054097e+00 3.300446e+00 6.514909e+00 1.651645e+01 8.000994e+00 2.197785e+01 1.176760e+01 6.287067e+00 1.110604e+01 1.830764e-03 5.717957e-02 6.687430e-02 7.814929e-02 1.031576e-01 1.105394e-01 1.308463e-01 1.782314e-01 1.814295e-01 2.179094e-01 2.010618e-01 1.821950e-01 1.415866e-01 3.754082e-05 1.048383e-02 1.462832e-02 1.679238e-02 2.122691e-02 2.756651e-02 2.283456e-02 3.744818e-02 3.095217e-02 4.693891e-02 2.920259e-02 2.331503e-02 2.566241e-02 3.730628e-06
<GCONST> -3.380147e+00
<MIXTURE> 11 7.506484e-02
<MEAN> 39
 -2.586485e+00 1.860810e+01 6.024746e-01 -3.551682e+00 -3.863381e+00 -5.808007e+00 -8.837333e+00 -1.982933e+00 2.764977e-01 -6.055492e+00 7.747212e+00 -3.682579e+00 8.891950e-01 1.642033e-02 4.123682e-02 2.514825e-02 -8.802040e-02 -3.181319e-02 -1.339193e-02 1.172352e-02 6.209859e-02 4.097034e-02 4.952864e-02 -5.084466e-02 -1.328509e-02 1.233736e-03 1.289768e-02 -3.650547e-02 2.917719e-02 -1.125888e-02 -1.589707e-02 -1.381944e-02 6.445674e-03 3.448126e-02 3.260560e-02 1.271385e-02 -2.896460e-02 4.511236e-02 -8.815260e-04
<VARIANCE> 39
 4.774004e+00 1.898843e+01 8.314042e+00 3.618147e+00 8.281952e+00 1.450126e+01 3.258898e+00 7.872407e+00 7.305792e+00 8.444540e+00 5.481159e+00 4.006442e+00 2.395281e-03 4.163859e-02 9.563779e-02 1.063586e-01 1.323456e-01 1.242661e-01 1.388979e-01 7.274202e-02 1.943663e-01 1.622626e-01 1.980256e-01 1.051304e-01 8.100995e-02 3.754082e-05 6.238955e-03 1.714819e-02 1.281284e-02 1.847351e-02 2.160493e-02 2.075400e-02 1.849598e-02 2.916895e-02 2.442326e-02 3.210057e-02 2.100765e-02 1.374906e-02 3.730628e-06
<GCONST> -8.228670e+00
<MIXTURE> 12 1.084093e-02
<MEAN> 39
 -2.826470e+00 1.060940e+01 -2.004106e+00 -1.047254e+00 -3.822257e+00 -3.981100e+00 -2.989015e+00 9.480285e-01 -3.415671e+00 1.561334e+00 -7.220003e-01 8.543970e+00 9.170370e-01 -2.482032e-01 -6.350845e-01 -6.716207e-01 -4.432735e-01 -6.405504e-01 -7.668184e-01 -7.448846e-01 -8.407840e-01 -3.399824e-01 -3.772170e-01 -4.362743e-01 -6.683697e-01 2.595140e-03 -5.689982e-03 -1.544541e-02 -1.465698e-02 4.668576e-04 -6.207262e-02 -1.599949e-02 -2.971834e-02 9.400183e-03 3.207876e-02 1.403998e-02 4.162599e-02 -9.183802e-02 -1.439685e-03
<VARIANCE> 39
 2.127013e+01 1.401127e+01 4.877120e+00 1.119841e+01 1.697514e+01 2.009470e+01 1.520120e+01 1.488228e+01 2.185481e+01 2.765237e+01 4.863704e+01 4.792698e+01 4.225303e-03 5.835854e-02 1.571819e-01 2.090162e-01 3.257944e-01 2.566291e-01 1.776055e-01 2.635602e-01 3.857471e-01 3.580711e-01 1.461921e-01 5.774841e-01 6.725817e-01 3.754082e-05 2.059206e-02 2.219225e-02 2.248033e-02 4.036710e-02 5.376505e-02 3.273417e-02 5.715653e-02 4.552922e-02 3.877258e-02 5.937225e-02 8.889918e-02 5.488081e-02 3.730628e-06
<GCONST> 2.359635e+01
<MIXTURE> 13 5.936921e-02
<MEAN> 39
 -3.899744e+00 7.417401e+00 -9.295903e-01 -3.249552e+00 -2.934877e+00 -3.754625e+00 -3.721424e-01 -4.191368e-01 1.470617e+00 9.971632e-01 6.188929e+00 5.962708e+00 9.698493e-01 1.696398e-02 -4.646757e-03 2.594412e-02 2.466637e-03 1.089984e-01 6.669708e-02 -3.546072e-02 4.657816e-02 -3.217651e-02 1.012454e-01 1.151622e-02 -1.205214e-01 -1.543055e-03 1.553842e-02 1.852122e-03 9.430934e-03 2.318026e-03 -1.342797e-02 -1.231284e-02 -8.784154e-03 2.153950e-02 -1.292767e-02 1.529682e-02 -7.515389e-03 -1.502832e-02 -4.977483e-04
<VARIANCE> 39
 5.979014e+00 1.762505e+01 3.007234e+00 3.840408e+00 6.443394e+00 9.218685e+00 2.527889e+00 2.782133e+00 1.364625e+01 3.189923e+01 2.189626e+01 4.663739e+01 8.178985e-04 3.380831e-02 9.685962e-02 1.150915e-01 1.082967e-01 1.595500e-01 1.126502e-01 1.944226e-01 1.631849e-01 1.035812e-01 1.456430e-01 1.192226e-01 1.343800e-01 3.754082e-05 3.868295e-03 1.262344e-02 1.736505e-02 1.453641e-02 2.207867e-02 1.863136e-02 2.610795e-02 2.498596e-02 1.724454e-02 2.216419e-02 1.963961e-02 2.626883e-02 3.730628e-06
<GCONST> -6.662152e+00
<MIXTURE> 14 1.084093e-02
<MEAN> 39
 -2.826470e+00 1.060940e+01 -2.004106e+00 -1.047254e+00 -3.822257e+00 -3.981100e+00 -2.989015e+00 9.480285e-01 -3.415671e+00 1.561334e+00 -7.220003e-01 8.543970e+00 9.170370e-01 -2.482032e-01 -6.350845e-01 -6.716207e-01 -4.432735e-01 -6.405504e-01 -7.668184e-01 -7.448846e-01 -8.407840e-01 -3.399824e-01 -3.772170e-01 -4.362743e-01 -6.683697e-01 2.595140e-03 -5.689982e-03 -1.544541e-02 -1.465698e-02 4.668576e-04 -6.207262e-02 -1.599949e-02 -2.971834e-02 9.400183e-03 3.207876e-02 1.403998e-02 4.162599e-02 -9.183802e-02 -1.439685e-03
<VARIANCE> 39
 2.127013e+01 1.401127e+01 4.877120e+00 1.119841e+01 1.697514e+01 2.009470e+01 1.520120e+01 1.488228e+01 2.185481e+01 2.765237e+01 4.863704e+01 4.792698e+01 4.225303e-03 5.835854e-02 1.571819e-01 2.090162e-01 3.257944e-01 2.566291e-01 1.776055e-01 2.635602e-01 3.857471e-01 3.580711e-01 1.461921e-01 5.774841e-01 6.725817e-01 3.754082e-05 2.059206e-02 2.219225e-02 2.248033e-02 4.036710e-02 5.376505e-02 3.273417e-02 5.715653e-02 4.552922e-02 3.877258e-02 5.937225e-02 8.889918e-02 5.488081e-02 3.730628e-06
<GCONST> 2.359635e+01
<MIXTURE> 15 7.241201e-02
<MEAN> 39
 -8.994181e-01 1.012419e+01 -2.518874e+00 -1.251892e+00 -3.216043e+00 -5.124896e+00 -4.825857e+00 1.719688e+00 -5.571663e+00 1.859500e+00 -3.484972e+00 2.804292e+00 9.007556e-01 -3.523647e-02 -9.228382e-02 5.465606e-05 4.321038e-01 1.775635e-01 -1.054360e-01 -3.208198e-01 -3.771049e-01 -2.979025e-01 -3.085558e-01 -4.841550e-01 4.349195e-02 1.741807e-02 1.777999e-01 -1.702215e-02 3.234955e-02 -4.803457e-02 -3.329466e-02 6.127819e-02 1.969008e-01 1.554572e-01 2.577466e-01 4.015386e-02 1.659222e-01 -5.151268e-02 -7.052866e-03
<VARIANCE> 39
 8.530339e+00 3.061381e+01 7.370026e+00 1.456886e+01 1.121277e+01 1.907101e+01 1.690054e+01 1.934044e+01 2.177208e+01 1.296576e+01 1.818540e+01 2.557429e+01 3.618294e-03 2.304548e-01 2.857763e-01 3.588860e-01 4.097640e-01 4.157169e-01 4.767924e-01 7.793031e-01 9.761099e-01 5.738805e-01 5.689622e-01 1.036252e+00 9.734653e-01 6.732755e-05 4.534455e-02 6.149350e-02 5.747022e-02 8.369886e-02 9.898664e-02 8.993722e-02 1.232515e-01 1.825782e-01 1.184209e-01 1.561711e-01 1.665555e-01 1.574090e-01 1.182623e-05
<GCONST> 4.327944e+01
<MIXTURE> 16 1.100498e-02
<MEAN> 39
 -3.229608e+00 8.462734e+00 -1.310828e+00 -1.534358e-01 -3.216057e+00 -2.875141e+00 -3.469076e-01 -1.506283e+00 -2.324027e+00 -2.836494e+00 1.554581e+00 4.123654e+00 8.812991e-01 -7.008219e-02 -2.520084e-01 -1.223747e-01 -1.804672e-01 -2.431332e-01 -4.121774e-01 -4.233945e-01 -1.404578e-01 -1.742223e-01 -3.879110e-01 -1.886538e-01 9.472542e-02 6.569234e-03 -7.792903e-02 -2.223146e-01 -1.898569e-01 -4.066727e-01 -3.618631e-01 -3.154775e-01 -2.465926e-01 -3.294457e-01 -2.458900e-01 -2.329753e-01 -3.230949e-01 -3.496691e-01 -1.655012e-03
<VARIANCE> 39
 6.624536e+00 1.143925e+01 3.157703e+00 1.176289e+01 8.108027e+00 1.706300e+01 7.667316e+00 3.913816e+01 1.679197e+01 1.195661e+01 2.185977e+01 4.688934e+01 4.667953e-03 5.441842e-02 1.035381e-01 1.157382e-01 3.975183e-01 3.113118e-01 1.124822e+00 6.386497e-01 2.486274e-01 1.796599e-01 4.498975e-01 4.693175e-01 5.728335e-01 8.450369e-05 1.166847e-02 1.140688e-02 5.385562e-02 3.415864e-02 1.850219e-02 3.792820e-02 4.054070e-02 4.527577e-02 4.257683e-02 6.809299e-02 4.086624e-02 4.655158e-02 3.730628e-06
<GCONST> 1.937428e+01
<MIXTURE> 17 9.349047e-02
<MEAN> 39
 -2.538028e+00 1.565618e+01 3.057623e-01 -2.362663e+00 -7.373138e+00 -2.893333e+00 -1.172627e+01 -4.806007e-01 -1.449152e+00 -5.951851e+00 5.002424e+00 -4.444657e+00 8.661298e-01 -4.084086e-01 2.448482e-01 8.701123e-02 -6.097952e-02 1.341936e-01 8.899593e-02 6.273227e-02 -3.309438e-01 -9.822439e-02 -3.844907e-01 2.851698e-01 -6.683510e-02 1.819504e-02 2.326072e-01 -2.711389e-01 4.340656e-02 6.345983e-02 1.660266e-01 -4.694055e-02 1.873421e-01 4.259728e-02 1.257532e-01 2.751958e-01 -1.512370e-01 8.772446e-02 -6.686931e-03
<VARIANCE> 39
 5.710126e+00 3.346090e+01 1.517992e+01 1.261351e+01 1.728436e+01 2.053022e+01 2.775990e+01 2.309632e+01 2.627404e+01 1.761563e+01 2.005486e+01 1.088969e+01 4.331765e-03 3.125759e-01 4.474715e-01 4.279023e-01 7.670320e-01 7.127839e-01 8.495460e-01 7.857020e-01 1.579842e+00 1.263130e+00 8.286693e-01 8.668081e-01 1.220199e+00 8.660866e-05 4.490849e-02 1.173859e-01 1.062833e-01 1.455494e-01 1.481902e-01 1.345899e-01 1.560716e-01 2.599275e-01 1.907275e-01 9.317502e-02 1.230346e-01 1.592063e-01 3.236833e-05
<GCONST> 5.314716e+01
<MIXTURE> 18 4.324324e-02
<MEAN> 39
 -2.314651e+00 1.748506e+01 -1.157191e+00 -6.892276e-01 -4.448550e+00 -7.169863e+00 -9.542705e+00 -1.533059e+00 -7.566982e+00 -1.784080e+00 2.250447e+00 5.082765e-01 8.995769e-01 2.064579e-02 4.317632e-02 3.719839e-02 2.331144e-01 2.873750e-01 2.236073e-02 -1.916971e-01 -1.143572e-02 1.983243e-01 -6.411871e-02 -2.915246e-02 1.520214e-02 3.098375e-03 6.954918e-02 -9.215063e-02 -1.461517e-02 -1.348136e-01 -1.653773e-02 -1.071590e-02 3.653266e-02 4.668647e-02 2.000423e-01 1.007002e-01 -7.449145e-03 -1.835233e-01 -2.357159e-03
<VARIANCE> 39
 1.796873e+00 5.132809e+01 7.228172e+00 7.090345e+00 4.806929e+00 1.034794e+01 1.797815e+01 1.568613e+01 1.261980e+01 2.091802e+01 2.596429e+01 1.917690e+01 2.380110e-03 5.328112e-02 9.808686e-02 1.277939e-01 2.583732e-01 3.375455e-01 4.312235e-01 3.579676e-01 2.732165e-01 2.951231e-01 3.480809e-01 2.276396e-01 3.602865e-01 3.754082e-05 8.684191e-03 2.697158e-02 2.781440e-02 3.939377e-02 5.921150e-02 6.850710e-02 8.690391e-02 7.929432e-02 6.453832e-02 8.569535e-02 6.223272e-02 8.090962e-02 4.629766e-06
<GCONST> 1.911702e+01
<MIXTURE> 19 2.569458e-02
<MEAN> 39
 2.068000e+00 1.272884e+01 -1.691430e+00 4.385081e+00 -4.720983e+00 -1.433794e+00 -7.048679e+00 6.737967e+00 -5.064578e+00 5.506092e-01 -4.190590e+00 -3.526026e+00 8.848435e-01 1.240085e-01 1.578837e-01 6.728052e-02 7.442254e-02 -1.220055e-02 3.356718e-02 5.624388e-02 -1.987427e-02 1.145665e-01 9.692287e-02 3.475288e-02 -1.466496e-01 -1.537313e-03 -9.778404e-03 -3.141534e-02 -1.610447e-02 -8.443849e-02 1.045658e-02 -3.105974e-02 -2.215815e-02 -8.580818e-02 -4.695848e-03 -1.134190e-02 1.034473e-01 -1.219878e-03 -5.393561e-04
<VARIANCE> 39
 1.794050e+00 3.332910e+00 3.736511e+00 7.171814e+00 1.443534e+01 8.991477e+00 2.337721e+01 1.590585e+01 7.900586e+00 9.356998e+00 2.756079e+01 2.130356e+01 8.178985e-04 1.033710e-01 1.680576e-01 3.149112e-01 3.102689e-01 3.854821e-01 3.092270e-01 4.415374e-01 6.102655e-01 4.856904e-01 5.424265e-01 4.133569e-01 4.470191e-01 3.754082e-05 9.973467e-03 2.624732e-02 5.377425e-02 5.832231e-02 8.611066e-02 5.351222e-02 1.046446e-01 6.116870e-02 7.810874e-02 1.149521e-01 1.246013e-01 9.943734e-02 3.730628e-06
<GCONST> 2.203156e+01
<MIXTURE> 20 2.258436e-02
<MEAN> 39
 -2.299916e+00 1.154445e+01 -8.030422e+00 -6.311009e+00 -1.134267e+01 -1.002387e+01 -6.515821e+00 -1.424240e+00 -1.171051e+01 -4.628009e+00 -5.454283e+00 2.765465e+00 8.157522e-01 -3.551847e-02 -1.017871e-01 -1.529782e-01 -1.602873e-01 -9.698211e-02 -2.157438e-01 3.860432e-02 4.895020e-02 1.850825e-01 -2.163005e-01 1.445610e-01 -2.318550e-01 2.580605e-03 7.867681e-02 6.801730e-02 1.126010e-01 1.008741e-01 2.395762e-01 1.248298e-01 1.521321e-01 6.964972e-02 1.927088e-01 1.533473e-01 -2.047146e-02 -1.247711e-01 -7.945226e-04
<VARIANCE> 39
 2.860659e+00 4.860459e+00 2.956110e+00 8.087113e+00 8.236703e+00 9.377594e+00 3.142503e+01 2.323552e+01 9.681943e+00 7.240154e+00 6.186239e+00 7.205305e+00 3.624587e-03 5.328062e-02 1.088225e-01 1.560809e-01 2.223939e-01 5.015606e-01 2.285132e-01 4.252394e-01 3.242002e-01 4.964358e-01 1.556651e-01 3.083184e-01 4.328781e-01 3.754082e-05 1.242852e-02 1.142364e-02 1.984737e-02 9.133975e-03 7.943688e-02 3.199479e-02 5.706675e-02 3.337681e-02 7.172468e-02 2.926240e-02 7.414213e-02 5.506702e-02 3.730628e-06
<GCONST> 9.547880e+00
<MIXTURE> 21 2.569458e-02
<MEAN> 39
 2.068000e+00 1.272884e+01 -1.691430e+00 4.385081e+00 -4.720983e+00 -1.433794e+00 -7.048679e+00 6.737967e+00 -5.064578e+00 5.506092e-01 -4.190590e+00 -3.526026e+00 8.848435e-01 1.240085e-01 1.578837e-01 6.728052e-02 7.442254e-02 -1.220055e-02 3.356718e-02 5.624388e-02 -1.987427e-02 1.145665e-01 9.692287e-02 3.475288e-02 -1.466496e-01 -1.537313e-03 -9.778404e-03 -3.141534e-02 -1.610447e-02 -8.443849e-02 1.045658e-02 -3.105974e-02 -2.215815e-02 -8.580818e-02 -4.695848e-03 -1.134190e-02 1.034473e-01 -1.219878e-03 -5.393561e-04
<VARIANCE> 39
 1.794050e+00 3.332910e+00 3.736511e+00 7.171814e+00 1.443534e+01 8.991477e+00 2.337721e+01 1.590585e+01 7.900586e+00 9.356998e+00 2.756079e+01 2.130356e+01 8.178985e-04 1.033710e-01 1.680576e-01 3.149112e-01 3.102689e-01 3.854821e-01 3.092270e-01 4.415374e-01 6.102655e-01 4.856904e-01 5.424265e-01 4.133569e-01 4.470191e-01 3.754082e-05 9.973467e-03 2.624732e-02 5.377425e-02 5.832231e-02 8.611066e-02 5.351222e-02 1.046446e-01 6.116870e-02 7.810874e-02 1.149521e-01 1.246013e-01 9.943734e-02 3.730628e-06
<GCONST> 2.203156e+01
<MIXTURE> 22 5.118281e-02
<MEAN> 39
 -9.033910e-01 1.388418e+01 -5.223409e+00 -2.685145e+00 -2.768946e+00 -1.076635e+01 1.816092e-01 -1.863402e+00 -2.878908e+00 -2.649505e+00 -4.814778e+00 2.389355e+00 8.262647e-01 -4.791406e-03 -7.238039e-03 -6.791188e-02 -6.375410e-02 -3.293446e-02 -3.058115e-02 1.169783e-01 -7.079957e-02 -2.683118e-02 -5.916637e-02 -1.844158e-02 5.808761e-02 8.452099e-04 -1.009261e-03 -4.369564e-02 -3.488941e-02 -4.534541e-02 -4.234951e-02 -5.128887e-02 -5.523635e-02 -4.475247e-02 -1.265032e-02 1.037896e-02 -2.845040e-02 -4.093524e-02 -1.055427e-03
<VARIANCE> 39
 2.945190e+00 4.263537e+00 6.984188e+00 1.218481e+01 2.078109e+01 1.190657e+01 9.392658e+00 1.224766e+01 2.159216e+01 1.224319e+01 9.405907e+00 6.026531e+00 3.617178e-03 3.048632e-02 8.002614e-02 7.392455e-02 1.798257e-01 1.345199e-01 1.434511e-01 1.885149e-01 1.473200e-01 1.168000e-01 1.381427e-01 1.432367e-01 1.936140e-01 3.754082e-05 4.716350e-03 7.077523e-03 1.146964e-02 1.988355e-02 1.659895e-02 2.357479e-02 2.188223e-02 2.178558e-02 2.009155e-02 2.077623e-02 1.927839e-02 2.908211e-02 3.730628e-06
<GCONST> -4.824212e+00
<STATE> 5
<NUMMIXES> 22
<MIXTURE> 1 2.457994e-03
<MEAN> 39
 -9.473063e+00 1.401796e+01 -2.024770e+00 -1.538886e-01 -1.129349e+01 -3.167712e+00 4.344617e+00 6.099777e+00 1.600266e+01 1.757800e+01 1.386629e+01 1.070061e+01 9.549199e-01 1.372264e+00 1.457349e+00 1.259071e+00 1.187004e+00 2.729268e-01 1.016921e-01 1.253611e+00 1.614671e+00 -1.194703e-01 1.396765e+00 4.698370e-01 -2.791979e+00 1.290850e-02 9.140508e-02 -1.389990e-01 -4.588388e-02 5.382137e-02 4.302690e-01 -4.429078e-01 -9.797368e-02 1.341892e-01 -1.725125e-01 -2.790526e-01 4.099562e-02 -1.139550e-01 -1.229259e-03
<VARIANCE> 39
 4.438895e+00 9.056499e+00 2.700697e+00 2.050222e+00 1.419352e+00 7.560059e+00 1.641662e+01 1.363587e+01 1.690870e+01 6.892002e+01 1.072004e+00 8.517589e+01 8.178985e-04 1.402107e-01 3.527782e-01 1.496806e-01 2.985879e-01 8.268052e-01 1.545090e+00 1.218374e-01 1.759944e-01 1.037709e+00 5.557088e-01 2.829966e-02 1.109730e+00 3.754082e-05 6.612571e-02 3.029331e-01 1.135229e-01 1.325033e-01 2.844873e-02 1.028660e-01 5.540032e-02 2.492956e-02 5.105833e-02 1.509070e-01 3.699850e-02 3.613868e-01 3.730628e-06
<GCONST> 2.321389e+01
<MIXTURE> 2 1.521362e-02
<MEAN> 39
 -2.637854e+00 1.412204e+01 1.331705e-01 -2.517926e+00 -6.873561e+00 -3.700634e+00 -7.263667e+00 -2.609379e-01 -8.735255e-01 -5.669147e+00 2.357962e+00 -4.320279e+00 8.531395e-01 -1.955059e-02 2.294981e-01 -1.462572e-01 1.137258e-01 2.457511e-01 4.113875e-01 3.957354e-01 -3.898370e-02 3.281925e-01 2.619939e-01 1.606930e-01 -8.290562e-02 1.441457e-02 1.789491e-01 -2.098748e-01 2.825576e-02 -6.238286e-02 2.743415e-01 -6.953070e-02 2.138698e-02 -7.128125e-02 1.636862e-01 2.187578e-01 -1.138340e-01 7.594883e-02 -5.352790e-03
<VARIANCE> 39
 1.045121e+01 4.939600e+01 2.098119e+01 2.273537e+01 1.778274e+01 3.818425e+01 3.152357e+01 4.031223e+01 6.362246e+01 7.427254e+01 2.863647e+01 2.740313e+01 9.018151e-03 6.775613e-01 1.059586e+00 1.347950e+00 1.161435e+00 1.613423e+00 1.438597e+00 1.340709e+00 1.642240e+00 1.652667e+00 1.924370e+00 1.850327e+00 1.686359e+00 1.547740e-04 1.252502e-01 9.730082e-02 1.744216e-01 2.341201e-01 1.690854e-01 1.999759e-01 2.503452e-01 2.946865e-01 3.184347e-01 2.943512e-01 2.217729e-01 2.134308e-01 5.632477e-05
<GCONST> 7.464496e+01
<MIXTURE> 3 1.521362e-02
<MEAN> 39
 -2.637854e+00 1.412204e+01 1.331705e-01 -2.517926e+00 -6.873561e+00 -3.700634e+00 -7.263667e+00 -2.609379e-01 -8.735255e-01 -5.669147e+00 2.357962e+00 -4.320279e+00 8.531395e-01 -1.955059e-02 2.294981e-01 -1.462572e-01 1.137258e-01 2.457511e-01 4.113875e-01 3.957354e-01 -3.898370e-02 3.281925e-01 2.619939e-01 1.606930e-01 -8.290562e-02 1.441457e-02 1.789491e-01 -2.098748e-01 2.825576e-02 -6.238286e-02 2.743415e-01 -6.953070e-02 2.138698e-02 -7.128125e-02 1.636862e-01 2.187578e-01 -1.138340e-01 7.594883e-02 -5.352790e-03
<VARIANCE> 39
 1.045121e+01 4.939600e+01 2.098119e+01 2.273537e+01 1.778274e+01 3.818425e+01 3.152357e+01 4.031223e+01 6.362246e+01 7.427254e+01 2.863647e+01 2.740313e+01 9.018151e-03 6.775613e-01 1.059586e+00 1.347950e+00 1.161435e+00 1.613423e+00 1.438597e+00 1.340709e+00 1.642240e+00 1.652667e+00 1.924370e+00 1.850327e+00 1.686359e+00 1.547740e-04 1.252502e-01 9.730082e-02 1.744216e-01 2.341201e-01 1.690854e-01 1.999759e-01 2.503452e-01 2.946865e-01 3.184347e-01 2.943512e-01 2.217729e-01 2.134308e-01 5.632477e-05
<GCONST> 7.464496e+01
<MIXTURE> 4 2.344064e-02
<MEAN> 39
 -2.141770e+00 1.431465e+01 -9.978020e+00 -3.250581e+00 -7.299484e+00 -6.821103e+00 3.940457e-01 -1.519066e+00 6.982913e+00 7.324803e+00 1.095724e+01 1.770684e+01 8.968613e-01 2.969564e-01 3.212124e-01 2.607782e-01 5.115488e-01 2.179026e-01 5.951051e-01 2.013600e-01 5.481980e-02 -7.245809e-02 -8.864539e-02 -8.274608e-02 -4.839426e-01 2.594019e-04 3.561802e-02 -1.263169e-02 5.806079e-02 -4.596110e-03 9.498811e-02 9.832629e-02 2.697202e-02 -3.685761e-02 -5.848921e-02 1.741818e-02 -1.178215e-01 -1.153830e-01 -1.782213e-03
<VARIANCE> 39
 9.885777e+00 4.554139e+01 2.709672e+01 1.344249e+01 1.056692e+01 8.674565e+00 1.252909e+01 1.852729e+01 2.964355e+01 6.647649e+01 2.935860e+01 3.051217e+01 6.492991e-03 2.214526e-01 3.682696e-01 6.566815e-01 1.122426e+00 1.147295e+00 6.160343e-01 4.177549e-01 4.732546e-01 3.892075e-01 6.214949e-01 4.620378e-01 1.532714e+00 3.754082e-05 2.528823e-02 4.128334e-02 6.280089e-02 8.590975e-02 1.454342e-01 8.294152e-02 4.011135e-02 4.226041e-02 4.293479e-02 1.101655e-01 6.983627e-02 1.056188e-01 3.730628e-06
<GCONST> 4.061606e+01
<MIXTURE> 5 1.521362e-02
<MEAN> 39
 -2.637854e+00 1.412204e+01 1.331705e-01 -2.517926e+00 -6.873561e+00 -3.700634e+00 -7.263667e+00 -2.609379e-01 -8.735255e-01 -5.669147e+00 2.357962e+00 -4.320279e+00 8.531395e-01 -1.955059e-02 2.294981e-01 -1.462572e-01 1.137258e-01 2.457511e-01 4.113875e-01 3.957354e-01 -3.898370e-02 3.281925e-01 2.619939e-01 1.606930e-01 -8.290562e-02 1.441457e-02 1.789491e-01 -2.098748e-01 2.825576e-02 -6.238286e-02 2.743415e-01 -6.953070e-02 2.138698e-02 -7.128125e-02 1.636862e-01 2.187578e-01 -1.138340e-01 7.594883e-02 -5.352790e-03
<VARIANCE> 39
 1.045121e+01 4.939600e+01 2.098119e+01 2.273537e+01 1.778274e+01 3.818425e+01 3.152357e+01 4.031223e+01 6.362246e+01 7.427254e+01 2.863647e+01 2.740313e+01 9.018151e-03 6.775613e-01 1.059586e+00 1.347950e+00 1.161435e+00 1.613423e+00 1.438597e+00 1.340709e+00 1.642240e+00 1.652667e+00 1.924370e+00 1.850327e+00 1.686359e+00 1.547740e-04 1.252502e-01 9.730082e-02 1.744216e-01 2.341201e-01 1.690854e-01 1.999759e-01 2.503452e-01 2.946865e-01 3.184347e-01 2.943512e-01 2.217729e-01 2.134308e-01 5.632477e-05
<GCONST> 7.464496e+01
<MIXTURE> 6 6.368306e-02
<MEAN> 39
 1.795868e-01 1.475484e+01 -3.482766e+00 8.549057e-01 -6.098169e+00 -4.631551e+00 -8.758550e-01 -6.439247e-01 -1.813971e+00 -9.831832e-01 -4.174749e+00 2.880708e+00 8.822426e-01 2.425047e-01 3.397340e-01 3.154790e-01 3.771459e-01 5.008876e-01 4.169324e-01 6.958621e-01 2.908357e-01 4.058400e-01 4.670665e-01 2.886715e-01 2.010795e-01 2.757917e-04 -1.638785e-01 -3.156210e-01 -3.588274e-01 -3.997972e-01 -3.764097e-01 -5.076929e-01 -3.515601e-01 -4.362471e-01 -3.233753e-01 -3.334670e-01 -3.168958e-01 -2.822106e-01 -1.001786e-03
<VARIANCE> 39
 1.282835e+01 2.398162e+01 1.186744e+01 1.427751e+01 1.142826e+01 1.819332e+01 1.522026e+01 2.351007e+01 2.184052e+01 1.911421e+01 1.996345e+01 2.162383e+01 6.477934e-03 6.533456e-02 2.119782e-01 2.292736e-01 3.599733e-01 4.240857e-01 4.359881e-01 4.518979e-01 4.236103e-01 3.667533e-01 4.289639e-01 3.942887e-01 4.750432e-01 3.754082e-05 1.502366e-02 3.786394e-02 5.026103e-02 4.917754e-02 6.233063e-02 6.174485e-02 1.338871e-01 7.432321e-02 1.103712e-01 1.014508e-01 7.499357e-02 1.120510e-01 3.730628e-06
<GCONST> 3.157353e+01
<MIXTURE> 7 2.743291e-02
<MEAN> 39
 -1.172773e+00 1.861996e+01 1.390170e+00 -1.211969e+00 -1.071190e+01 -1.274146e+00 -1.465483e+01 3.133747e+00 -4.337472e-01 -6.209053e+00 5.032312e+00 -5.605929e+00 8.443569e-01 -3.231618e-02 6.025836e-02 7.634955e-02 -1.357434e-03 1.508985e-01 -1.181711e-01 3.024313e-02 1.889060e-01 3.952100e-02 -3.941158e-02 5.863452e-02 -1.866087e-01 1.209353e-03 6.291605e-03 -7.306008e-02 6.050948e-03 -6.024318e-02 1.109788e-01 -8.969503e-02 9.046926e-02 -1.222729e-01 5.702207e-02 4.075655e-02 6.060546e-02 6.826232e-02 -9.625569e-04
<VARIANCE> 39
 1.065343e+01 1.953897e+01 9.608829e+00 1.034384e+01 1.606168e+01 2.298240e+01 1.511720e+01 1.843635e+01 1.815726e+01 2.202938e+01 1.157454e+01 1.258049e+01 3.588033e-03 5.345872e-02 1.272107e-01 3.025997e-01 3.088722e-01 2.744210e-01 4.796474e-01 6.447291e-01 6.298919e-01 9.041466e-01 6.564657e-01 6.281317e-01 3.622333e-01 3.754082e-05 8.896871e-03 2.883494e-02 4.181002e-02 4.582616e-02 5.914363e-02 1.013739e-01 1.148587e-01 1.291227e-01 2.158091e-01 1.083509e-01 9.109609e-02 6.267305e-02 3.730628e-06
<GCONST> 3.074225e+01
<MIXTURE> 8 3.009604e-02
<MEAN> 39
 -4.165406e+00 7.303556e+00 -4.543967e+00 -6.517159e-01 -7.769235e+00 -8.268169e+00 -5.192612e+00 -4.671997e+00 -3.741432e+00 -3.268519e+00 -4.573402e+00 4.060968e+00 9.377209e-01 -2.262793e-01 -5.111502e-01 -5.800524e-01 -6.418309e-01 -6.186642e-01 -6.178071e-01 -6.783532e-01 -5.545302e-01 -5.234315e-01 -5.933906e-01 -3.506896e-01 -3.257302e-01 3.158412e-03 1.130165e-01 2.407940e-01 2.374914e-01 1.628077e-01 2.977660e-01 3.448174e-01 4.274762e-01 4.505469e-01 3.189667e-01 1.832778e-01 1.229718e-01 1.181270e-01 -2.728726e-03
<VARIANCE> 39
 9.662735e+00 2.311879e+01 6.432852e+00 4.863810e+00 1.254365e+01 2.609130e+01 9.592194e+00 1.151370e+01 7.186929e+00 1.556027e+01 1.788830e+01 1.408922e+01 2.296868e-03 1.166601e-01 1.019770e-01 2.200759e-01 2.658343e-01 3.964570e-01 4.711984e-01 6.111215e-01 5.336213e-01 3.514585e-01 4.531364e-01 6.498938e-01 3.705434e-01 3.754082e-05 2.547832e-02 1.478495e-02 2.792453e-02 5.630282e-02 7.106561e-02 5.409190e-02 8.829690e-02 6.507994e-02 5.279065e-02 5.999474e-02 3.822365e-02 5.561849e-02 5.299969e-06
<GCONST> 2.255960e+01
<MIXTURE> 9 7.896009e-02
<MEAN> 39
 -8.682559e-01 1.231601e+01 -6.304738e+00 -2.494201e+00 -9.192697e+00 -7.929837e+00 -4.802347e+00 -4.286644e+00 -4.039868e+00 -4.119241e+00 -6.360376e+00 5.141180e-01 8.794753e-01 3.228813e-01 5.233688e-01 4.667664e-01 6.513071e-01 7.114410e-01 8.472949e-01 7.072024e-01 7.178517e-01 8.177742e-01 6.014094e-01 5.693657e-01 3.666016e-01 2.309873e-04 1.003269e-01 1.471775e-01 2.399320e-01 2.222539e-01 3.388737e-01 2.447433e-01 3.586363e-01 3.065205e-01 2.458539e-01 2.974131e-01 2.292093e-01 1.617606e-01 -1.229000e-03
<VARIANCE> 39
 1.639828e+01 2.451972e+01 1.387210e+01 1.294890e+01 1.506120e+01 2.064935e+01 1.771231e+01 2.531741e+01 1.930330e+01 3.041820e+01 2.176680e+01 2.840193e+01 7.308395e-03 1.123779e-01 2.086739e-01 2.042179e-01 4.168753e-01 3.769158e-01 4.342338e-01 5.458626e-01 4.281313e-01 4.727010e-01 4.996470e-01 4.412399e-01 4.921067e-01 3.754082e-05 1.301165e-02 3.129863e-02 4.023948e-02 6.173569e-02 7.290710e-02 9.787111e-02 9.662980e-02 9.158310e-02 1.006482e-01 9.537053e-02 1.010869e-01 1.108209e-01 3.730628e-06
<GCONST> 3.484266e+01
<MIXTURE> 10 2.743291e-02
<MEAN> 39
 -1.172773e+00 1.861996e+01 1.390170e+00 -1.211969e+00 -1.071190e+01 -1.274146e+00 -1.465483e+01 3.133747e+00 -4.337472e-01 -6.209053e+00 5.032312e+00 -5.605929e+00 8.443569e-01 -3.231618e-02 6.025836e-02 7.634955e-02 -1.357434e-03 1.508985e-01 -1.181711e-01 3.024313e-02 1.889060e-01 3.952100e-02 -3.941158e-02 5.863452e-02 -1.866087e-01 1.209353e-03 6.291605e-03 -7.306008e-02 6.050948e-03 -6.024318e-02 1.109788e-01 -8.969503e-02 9.046926e-02 -1.222729e-01 5.702207e-02 4.075655e-02 6.060546e-02 6.826232e-02 -9.625569e-04
<VARIANCE> 39
 1.065343e+01 1.953897e+01 9.608829e+00 1.034384e+01 1.606168e+01 2.298240e+01 1.511720e+01 1.843635e+01 1.815726e+01 2.202938e+01 1.157454e+01 1.258049e+01 3.588033e-03 5.345872e-02 1.272107e-01 3.025997e-01 3.088722e-01 2.744210e-01 4.796474e-01 6.447291e-01 6.298919e-01 9.041466e-01 6.564657e-01 6.281317e-01 3.622333e-01 3.754082e-05 8.896871e-03 2.883494e-02 4.181002e-02 4.582616e-02 5.914363e-02 1.013739e-01 1.148587e-01 1.291227e-01 2.158091e-01 1.083509e-01 9.109609e-02 6.267305e-02 3.730628e-06
<GCONST> 3.074225e+01
<MIXTURE> 11 2.743291e-02
<MEAN> 39
 -1.172773e+00 1.861996e+01 1.390170e+00 -1.211969e+00 -1.071190e+01 -1.274146e+00 -1.465483e+01 3.133747e+00 -4.337472e-01 -6.209053e+00 5.032312e+00 -5.605929e+00 8.443569e-01 -3.231618e-02 6.025836e-02 7.634955e-02 -1.357434e-03 1.508985e-01 -1.181711e-01 3.024313e-02 1.889060e-01 3.952100e-02 -3.941158e-02 5.863452e-02 -1.866087e-01 1.209353e-03 6.291605e-03 -7.306008e-02 6.050948e-03 -6.024318e-02 1.109788e-01 -8.969503e-02 9.046926e-02 -1.222729e-01 5.702207e-02 4.075655e-02 6.060546e-02 6.826232e-02 -9.625569e-04
<VARIANCE> 39
 1.065343e+01 1.953897e+01 9.608829e+00 1.034384e+01 1.606168e+01 2.298240e+01 1.511720e+01 1.843635e+01 1.815726e+01 2.202938e+01 1.157454e+01 1.258049e+01 3.588033e-03 5.345872e-02 1.272107e-01 3.025997e-01 3.088722e-01 2.744210e-01 4.796474e-01 6.447291e-01 6.298919e-01 9.041466e-01 6.564657e-01 6.281317e-01 3.622333e-01 3.754082e-05 8.896871e-03 2.883494e-02 4.181002e-02 4.582616e-02 5.914363e-02 1.013739e-01 1.148587e-01 1.291227e-01 2.158091e-01 1.083509e-01 9.109609e-02 6.267305e-02 3.730628e-06
<GCONST> 3.074225e+01
<MIXTURE> 12 3.781383e-02
<MEAN> 39
 4.401185e-01 1.388031e+01 -5.519316e+00 -1.202774e+00 -7.620118e+00 -8.233567e+00 -3.659910e+00 -3.026621e+00 -2.981900e+00 -4.483318e+00 -7.177388e+00 -7.523907e-01 8.566506e-01 -2.149436e-01 -4.571728e-01 -7.207868e-01 -6.686234e-01 -6.922027e-01 -8.569902e-01 -7.763478e-01 -8.609711e-01 -6.938059e-01 -7.331128e-01 -6.053001e-01 -6.824273e-01 -1.511611e-04 1.265691e-02 5.780229e-02 5.330434e-02 2.223517e-02 6.018101e-02 1.014404e-01 1.066859e-01 1.057229e-01 1.104740e-01 4.437977e-02 1.019392e-01 1.010862e-01 -1.178406e-03
<VARIANCE> 39
 1.113777e+01 2.343673e+01 1.374846e+01 1.280594e+01 1.441971e+01 1.814781e+01 2.009902e+01 2.326345e+01 2.157498e+01 3.022127e+01 1.994847e+01 2.982151e+01 6.495576e-03 9.651780e-02 2.018778e-01 3.230484e-01 3.668852e-01 3.456523e-01 4.494685e-01 5.756284e-01 4.393235e-01 5.461428e-01 4.727734e-01 7.057215e-01 5.594702e-01 3.754082e-05 8.880163e-03 3.650092e-02 4.038679e-02 3.325474e-02 4.852283e-02 8.385813e-02 7.447487e-02 1.010820e-01 8.425353e-02 9.688115e-02 7.555030e-02 8.470728e-02 3.730628e-06
<GCONST> 3.277895e+01
<MIXTURE> 13 1.107544e-01
<MEAN> 39
 -2.264476e+00 1.513137e+01 3.280658e-01 -3.337134e+00 -3.490813e+00 -5.078714e+00 -1.042549e+01 -3.223403e+00 5.489044e-01 -6.514777e+00 6.616752e+00 -4.249585e+00 8.937238e-01 -1.522722e-02 1.279811e-01 -6.074585e-02 -6.820168e-02 1.207073e-01 1.547077e-02 -1.326108e-02 7.819396e-02 3.843957e-02 1.017084e-01 -1.365328e-01 -1.223852e-01 9.713864e-04 1.315005e-02 -4.455573e-02 5.471682e-02 -1.941945e-03 -7.096849e-02 -5.668217e-02 7.565924e-02 7.913795e-02 -2.134488e-03 6.240167e-02 -5.294155e-02 6.612825e-02 -1.650095e-03
<VARIANCE> 39
 7.946203e+00 2.551794e+01 1.353360e+01 1.243344e+01 1.886885e+01 1.710033e+01 1.801865e+01 1.706750e+01 2.257046e+01 3.533314e+01 1.601239e+01 1.479243e+01 4.220582e-03 1.064983e-01 1.867196e-01 2.109470e-01 2.382698e-01 3.614382e-01 3.524221e-01 4.331169e-01 4.254717e-01 3.824641e-01 3.144346e-01 3.903938e-01 4.327912e-01 3.754082e-05 1.892084e-02 3.431007e-02 4.586732e-02 4.924115e-02 5.346086e-02 7.468503e-02 6.113971e-02 8.009513e-02 6.713441e-02 6.472544e-02 6.846292e-02 9.379720e-02 3.730628e-06
<GCONST> 2.829385e+01
<MIXTURE> 14 3.781383e-02
<MEAN> 39
 4.401185e-01 1.388031e+01 -5.519316e+00 -1.202774e+00 -7.620118e+00 -8.233567e+00 -3.659910e+00 -3.026621e+00 -2.981900e+00 -4.483318e+00 -7.177388e+00 -7.523907e-01 8.566506e-01 -2.149436e-01 -4.571728e-01 -7.207868e-01 -6.686234e-01 -6.922027e-01 -8.569902e-01 -7.763478e-01 -8.609711e-01 -6.938059e-01 -7.331128e-01 -6.053001e-01 -6.824273e-01 -1.511611e-04 1.265691e-02 5.780229e-02 5.330434e-02 2.223517e-02 6.018101e-02 1.014404e-01 1.066859e-01 1.057229e-01 1.104740e-01 4.437977e-02 1.019392e-01 1.010862e-01 -1.178406e-03
<VARIANCE> 39
 1.113777e+01 2.343673e+01 1.374846e+01 1.280594e+01 1.441971e+01 1.814781e+01 2.009902e+01 2.326345e+01 2.157498e+01 3.022127e+01 1.994847e+01 2.982151e+01 6.495576e-03 9.651780e-02 2.018778e-01 3.230484e-01 3.668852e-01 3.456523e-01 4.494685e-01 5.756284e-01 4.393235e-01 5.461428e-01 4.727734e-01 7.057215e-01 5.594702e-01 3.754082e-05 8.880163e-03 3.650092e-02 4.038679e-02 3.325474e-02 4.852283e-02 8.385813e-02 7.447487e-02 1.010820e-01 8.425353e-02 9.688115e-02 7.555030e-02 8.470728e-02 3.730628e-06
<GCONST> 3.277895e+01
<MIXTURE> 15 7.054335e-02
<MEAN> 39
 -9.462729e-01 1.260825e+01 -6.333777e+00 -3.384417e+00 -9.505789e+00 -1.013315e+01 -6.661582e+00 -4.234901e+00 -5.344442e+00 -4.787366e+00 -7.337430e+00 -1.617403e+00 8.626834e-01 -4.510070e-02 -4.131973e-02 -2.530887e-01 -1.889453e-01 -1.655920e-01 -7.480010e-02 -1.557640e-01 -2.411996e-01 -1.205777e-01 -2.138308e-01 -1.392884e-01 -2.089951e-01 1.717401e-04 1.575796e-01 2.314429e-01 3.402362e-01 3.348210e-01 3.780347e-01 4.681550e-01 4.614160e-01 4.313694e-01 4.432763e-01 3.467488e-01 3.425688e-01 2.820486e-01 -1.160338e-03
<VARIANCE> 39
 1.515884e+01 1.479778e+01 1.757455e+01 1.176327e+01 1.417689e+01 2.074815e+01 2.703538e+01 2.336518e+01 1.944745e+01 3.275785e+01 2.986812e+01 4.189722e+01 7.838940e-03 1.060980e-01 1.471578e-01 2.538259e-01 2.871594e-01 2.664784e-01 4.252313e-01 4.431885e-01 4.682366e-01 3.521850e-01 3.963645e-01 3.916548e-01 5.163244e-01 3.754082e-05 1.398840e-02 4.128056e-02 5.236455e-02 6.267394e-02 5.169180e-02 7.142177e-02 8.695167e-02 9.123458e-02 1.200040e-01 9.355734e-02 8.630855e-02 9.963239e-02 3.730628e-06
<GCONST> 3.364930e+01
<MIXTURE> 16 7.315905e-02
<MEAN> 39
 2.450114e-01 1.454111e+01 -3.416825e+00 1.019763e+00 -5.648875e+00 -5.872348e+00 -8.053344e-01 -6.687395e-01 -8.118659e-01 -1.104686e+00 -4.670784e+00 2.579432e+00 8.778338e-01 -1.539846e-01 -4.200130e-01 -5.990052e-01 -4.777928e-01 -6.050292e-01 -6.771733e-01 -5.372934e-01 -6.501601e-01 -5.945698e-01 -5.283973e-01 -5.401369e-01 -5.544890e-01 1.652886e-03 -1.152425e-01 -1.774334e-01 -2.441689e-01 -3.309909e-01 -2.583404e-01 -2.469157e-01 -2.954693e-01 -2.683995e-01 -2.468281e-01 -2.556415e-01 -2.046937e-01 -2.000251e-01 -1.444690e-03
<VARIANCE> 39
 1.280720e+01 2.201319e+01 9.926271e+00 1.449936e+01 1.082711e+01 2.027256e+01 1.373681e+01 1.851969e+01 1.635926e+01 2.314051e+01 1.699642e+01 2.265905e+01 6.774091e-03 8.591796e-02 1.827824e-01 2.435077e-01 3.200695e-01 3.666621e-01 3.299314e-01 3.791001e-01 4.775656e-01 4.769153e-01 6.782832e-01 4.855524e-01 4.304419e-01 3.927202e-05 1.560831e-02 3.826527e-02 4.441403e-02 4.961561e-02 7.088973e-02 1.076686e-01 1.099699e-01 7.575391e-02 7.945724e-02 8.717401e-02 8.127059e-02 8.663477e-02 5.331729e-06
<GCONST> 3.147363e+01
<MIXTURE> 17 3.836031e-02
<MEAN> 39
 3.786268e-01 1.154676e+01 -4.874209e+00 -7.039416e-02 -3.023862e+00 -3.121716e+00 -2.142169e+00 -1.873537e+00 -8.081204e-01 3.313282e+00 3.061822e+00 6.108996e+00 9.213858e-01 1.367735e-01 2.647174e-01 4.772189e-01 8.499858e-01 6.842641e-02 2.256276e-01 4.529923e-01 1.911068e-01 4.857838e-01 6.732367e-01 6.191404e-01 5.642342e-01 9.085933e-03 -1.100733e-01 -1.847242e-01 -1.729810e-01 -3.458422e-01 -2.653633e-01 -3.164867e-01 -5.778207e-02 -7.899440e-02 -4.992592e-02 -2.692714e-01 -4.111428e-01 -3.596357e-01 -4.262656e-03
<VARIANCE> 39
 1.472131e+01 3.482530e+01 2.224855e+01 1.675801e+01 2.057885e+01 2.312856e+01 1.613296e+01 2.287150e+01 2.326844e+01 1.307991e+01 6.608950e+01 5.518254e+01 3.077686e-03 2.839989e-01 6.029031e-01 5.599746e-01 8.119649e-01 1.392678e+00 1.350919e+00 1.929146e+00 1.668703e+00 9.221342e-01 1.462827e+00 2.065162e+00 2.142261e+00 5.501844e-05 7.728660e-02 1.027177e-01 1.479641e-01 2.069120e-01 1.578247e-01 1.891989e-01 2.730962e-01 1.871101e-01 2.170927e-01 2.204469e-01 4.457961e-01 3.591359e-01 1.369281e-05
<GCONST> 6.439950e+01
<MIXTURE> 18 5.736757e-02
<MEAN> 39
 -1.091903e+00 1.238350e+01 -3.974180e+00 -3.470759e-01 -7.031799e+00 -6.371034e+00 -2.628887e+00 -1.737456e+00 -2.723223e+00 -2.728893e+00 -4.179232e+00 1.848363e+00 8.942477e-01 4.474458e-01 5.733578e-01 7.753934e-01 8.198741e-01 1.113764e+00 9.709042e-01 1.071212e+00 9.650605e-01 9.002627e-01 8.363740e-01 7.695377e-01 5.132681e-01 4.828240e-04 -2.196893e-02 -5.504177e-02 -6.498366e-02 -9.136483e-02 -1.553471e-02 -9.987530e-02 -3.568459e-02 -1.337662e-01 -9.010508e-02 5.372441e-02 -3.753451e-02 -8.859199e-02 -1.364772e-03
<VARIANCE> 39
 1.438493e+01 2.431543e+01 1.010254e+01 1.239894e+01 1.028100e+01 1.802270e+01 1.666570e+01 2.025758e+01 1.956164e+01 2.133285e+01 1.766699e+01 2.905064e+01 6.388955e-03 1.105846e-01 1.365731e-01 1.888718e-01 2.846771e-01 3.145261e-01 5.162413e-01 4.416264e-01 4.264558e-01 5.281457e-01 5.994218e-01 5.392169e-01 5.581181e-01 3.754082e-05 1.669662e-02 2.926396e-02 3.824883e-02 6.339543e-02 7.321992e-02 7.468843e-02 7.959811e-02 7.686297e-02 7.521482e-02 1.024699e-01 9.977855e-02 8.930963e-02 3.730628e-06
<GCONST> 3.144952e+01
<MIXTURE> 19 2.882161e-02
<MEAN> 39
 3.726147e+00 1.740346e+01 -3.888525e+00 7.430341e-01 -4.527089e+00 -6.202156e+00 -3.397045e+00 -4.620408e-01 -5.782317e-03 -3.042657e-01 -5.969375e+00 1.439495e+00 8.188710e-01 2.493212e-01 2.297402e-01 -5.169167e-02 3.208120e-01 1.867187e-01 1.509683e-01 3.348039e-01 3.365403e-02 2.687603e-01 2.813437e-01 5.649042e-01 3.470770e-01 2.074403e-03 -7.522310e-02 -1.705140e-01 -9.409700e-02 -1.158824e-01 -1.958876e-01 -8.003306e-02 -4.063703e-02 -5.744422e-02 -2.785996e-01 -1.052960e-01 -1.771108e-03 -1.119134e-01 -4.171455e-04
<VARIANCE> 39
 6.768779e+00 9.328741e+00 1.543519e+01 1.311071e+01 1.485899e+01 1.273316e+01 1.459394e+01 2.258060e+01 1.467605e+01 3.166866e+01 2.917748e+01 4.108030e+01 7.478892e-03 9.591290e-02 6.195308e-01 6.242756e-01 3.593617e-01 7.303535e-01 1.205003e+00 1.269562e+00 1.377172e+00 1.176593e+00 1.201344e+00 7.512739e-01 1.387710e+00 5.037887e-05 1.722908e-02 4.707065e-02 1.079290e-01 8.061222e-02 9.950966e-02 1.799342e-01 1.604102e-01 1.796076e-01 1.836362e-01 2.085669e-01 2.011429e-01 1.936420e-01 3.730628e-06
<GCONST> 4.867506e+01
<MIXTURE> 20 7.900962e-02
<MEAN> 39
 4.657928e-01 1.388395e+01 -5.090469e+00 -6.998323e-01 -5.144746e+00 -6.810523e+00 -4.106430e+00 -1.315182e+00 -2.351820e+00 -2.352332e+00 -5.802806e+00 4.147617e-01 8.347673e-01 7.173731e-02 8.556512e-02 7.261068e-02 1.205833e-01 1.481680e-01 -4.237051e-03 1.943834e-01 1.159072e-01 3.371392e-01 -2.100923e-02 -6.269038e-02 -8.785333e-04 -2.345297e-03 -4.267736e-02 -2.150021e-02 -1.382290e-02 -3.775035e-02 -5.607448e-02 -1.043047e-01 -3.251438e-02 -6.810918e-02 8.770810e-04 -1.620411e-02 -2.494198e-02 -8.472371e-02 -7.151795e-04
<VARIANCE> 39
 6.300138e+00 8.263509e+00 9.026966e+00 1.654085e+01 1.133497e+01 2.136096e+01 1.909707e+01 1.727164e+01 2.061309e+01 2.817104e+01 2.166900e+01 2.668631e+01 1.414948e-02 6.445057e-02 5.842042e-02 1.285753e-01 2.468741e-01 1.679482e-01 3.608206e-01 2.326069e-01 4.377620e-01 2.713366e-01 2.866155e-01 2.651813e-01 2.970513e-01 3.754082e-05 1.203402e-02 1.378073e-02 2.853679e-02 3.629242e-02 4.293930e-02 5.377217e-02 4.232534e-02 5.537545e-02 8.646495e-02 5.977299e-02 4.686942e-02 5.720637e-02 3.730628e-06
<GCONST> 1.959479e+01
<MIXTURE> 21 2.882161e-02
<MEAN> 39
 3.726147e+00 1.740346e+01 -3.888525e+00 7.430341e-01 -4.527089e+00 -6.202156e+00 -3.397045e+00 -4.620408e-01 -5.782317e-03 -3.042657e-01 -5.969375e+00 1.439495e+00 8.188710e-01 2.493212e-01 2.297402e-01 -5.169167e-02 3.208120e-01 1.867187e-01 1.509683e-01 3.348039e-01 3.365403e-02 2.687603e-01 2.813437e-01 5.649042e-01 3.470770e-01 2.074403e-03 -7.522310e-02 -1.705140e-01 -9.409700e-02 -1.158824e-01 -1.958876e-01 -8.003306e-02 -4.063703e-02 -5.744422e-02 -2.785996e-01 -1.052960e-01 -1.771108e-03 -1.119134e-01 -4.171455e-04
<VARIANCE> 39
 6.768779e+00 9.328741e+00 1.543519e+01 1.311071e+01 1.485899e+01 1.273316e+01 1.459394e+01 2.258060e+01 1.467605e+01 3.166866e+01 2.917748e+01 4.108030e+01 7.478892e-03 9.591290e-02 6.195308e-01 6.242756e-01 3.593617e-01 7.303535e-01 1.205003e+00 1.269562e+00 1.377172e+00 1.176593e+00 1.201344e+00 7.512739e-01 1.387710e+00 5.037887e-05 1.722908e-02 4.707065e-02 1.079290e-01 8.061222e-02 9.950966e-02 1.799342e-01 1.604102e-01 1.796076e-01 1.836362e-01 2.085669e-01 2.011429e-01 1.936420e-01 3.730628e-06
<GCONST> 4.867506e+01
<MIXTURE> 22 1.109515e-01
<MEAN> 39
 -5.178123e-01 1.251521e+01 -4.630425e+00 6.667410e-01 -6.487952e+00 -7.541654e+00 -2.191106e+00 -4.974524e+00 -3.684586e+00 -2.820359e+00 -5.939734e+00 5.133904e+00 9.111927e-01 -2.572682e-02 -3.280959e-03 -1.287304e-01 1.290068e-01 -6.693465e-02 4.716240e-03 -7.843021e-02 -5.989850e-02 1.318001e-01 1.274538e-01 1.141444e-02 -1.064245e-01 1.384784e-03 -4.802877e-02 -3.170752e-02 -2.447308e-02 -1.067741e-01 4.811811e-02 -4.244607e-02 2.765102e-02 5.386297e-02 1.527963e-02 1.201347e-02 6.654273e-02 -3.284703e-02 -1.660296e-03
<VARIANCE> 39
 1.888733e+01 2.340556e+01 1.082182e+01 1.215954e+01 1.579843e+01 2.354617e+01 1.660909e+01 3.102827e+01 1.446545e+01 1.496251e+01 2.658160e+01 2.453998e+01 3.302418e-03 8.329618e-02 1.825358e-01 2.412127e-01 3.602495e-01 3.943897e-01 3.860003e-01 4.469358e-01 4.240385e-01 5.491771e-01 4.723635e-01 4.581191e-01 4.932451e-01 3.754082e-05 1.651891e-02 2.736875e-02 4.915276e-02 4.423043e-02 6.956980e-02 6.079804e-02 1.025783e-01 9.577541e-02 8.094490e-02 7.546522e-02 9.088895e-02 8.936813e-02 3.730628e-06
<GCONST> 3.142385e+01
<STATE> 6
